label,emb0,emb1,emb2,emb3,emb4,emb5,emb6,emb7,emb8,emb9,emb10,emb11,emb12,emb13,emb14,emb15,emb16,emb17,emb18,emb19,emb20,emb21,emb22,emb23,emb24,emb25,emb26,emb27,emb28,emb29,emb30,emb31,emb32,emb33,emb34,emb35,emb36,emb37,emb38,emb39,emb40,emb41,emb42,emb43,emb44,emb45,emb46,emb47,emb48,emb49,emb50,emb51,emb52,emb53,emb54,emb55,emb56,emb57,emb58,emb59,emb60,emb61,emb62,emb63,emb64,emb65,emb66,emb67,emb68,emb69,emb70,emb71,emb72,emb73,emb74,emb75,emb76,emb77,emb78,emb79,emb80,emb81,emb82,emb83,emb84,emb85,emb86,emb87,emb88,emb89,emb90,emb91,emb92,emb93,emb94,emb95,emb96,emb97,emb98,emb99,emb100,emb101,emb102,emb103,emb104,emb105,emb106,emb107,emb108,emb109,emb110,emb111,emb112,emb113,emb114,emb115,emb116,emb117,emb118,emb119,emb120,emb121,emb122,emb123,emb124,emb125,emb126,emb127,emb128,emb129,emb130,emb131,emb132,emb133,emb134,emb135,emb136,emb137,emb138,emb139,emb140,emb141,emb142,emb143,emb144,emb145,emb146,emb147,emb148,emb149,emb150,emb151,emb152,emb153,emb154,emb155,emb156,emb157,emb158,emb159,emb160,emb161,emb162,emb163,emb164,emb165,emb166,emb167,emb168,emb169,emb170,emb171,emb172,emb173,emb174,emb175,emb176,emb177,emb178,emb179,emb180,emb181,emb182,emb183,emb184,emb185,emb186,emb187,emb188,emb189,emb190,emb191,emb192,emb193,emb194,emb195,emb196,emb197,emb198,emb199,emb200,emb201,emb202,emb203,emb204,emb205,emb206,emb207,emb208,emb209,emb210,emb211,emb212,emb213,emb214,emb215,emb216,emb217,emb218,emb219,emb220,emb221,emb222,emb223,emb224,emb225,emb226,emb227,emb228,emb229,emb230,emb231,emb232,emb233,emb234,emb235,emb236,emb237,emb238,emb239,emb240,emb241,emb242,emb243,emb244,emb245,emb246,emb247,emb248,emb249,emb250,emb251,emb252,emb253,emb254,emb255,emb256,emb257,emb258,emb259,emb260,emb261,emb262,emb263,emb264,emb265,emb266,emb267,emb268,emb269,emb270,emb271,emb272,emb273,emb274,emb275,emb276,emb277,emb278,emb279,emb280,emb281,emb282,emb283,emb284,emb285,emb286,emb287,emb288,emb289,emb290,emb291,emb292,emb293,emb294,emb295,emb296,emb297,emb298,emb299,emb300,emb301,emb302,emb303,emb304,emb305,emb306,emb307,emb308,emb309,emb310,emb311,emb312,emb313,emb314,emb315,emb316,emb317,emb318,emb319,emb320,emb321,emb322,emb323,emb324,emb325,emb326,emb327,emb328,emb329,emb330,emb331,emb332,emb333,emb334,emb335,emb336,emb337,emb338,emb339,emb340,emb341,emb342,emb343,emb344,emb345,emb346,emb347,emb348,emb349,emb350,emb351,emb352,emb353,emb354,emb355,emb356,emb357,emb358,emb359,emb360,emb361,emb362,emb363,emb364,emb365,emb366,emb367,emb368,emb369,emb370,emb371,emb372,emb373,emb374,emb375,emb376,emb377,emb378,emb379,emb380,emb381,emb382,emb383,emb384,emb385,emb386,emb387,emb388,emb389,emb390,emb391,emb392,emb393,emb394,emb395,emb396,emb397,emb398,emb399,emb400,emb401,emb402,emb403,emb404,emb405,emb406,emb407,emb408,emb409,emb410,emb411,emb412,emb413,emb414,emb415,emb416,emb417,emb418,emb419,emb420,emb421,emb422,emb423,emb424,emb425,emb426,emb427,emb428,emb429,emb430,emb431,emb432,emb433,emb434,emb435,emb436,emb437,emb438,emb439,emb440,emb441,emb442,emb443,emb444,emb445,emb446,emb447,emb448,emb449,emb450,emb451,emb452,emb453,emb454,emb455,emb456,emb457,emb458,emb459,emb460,emb461,emb462,emb463,emb464,emb465,emb466,emb467,emb468,emb469,emb470,emb471,emb472,emb473,emb474,emb475,emb476,emb477,emb478,emb479,emb480,emb481,emb482,emb483,emb484,emb485,emb486,emb487,emb488,emb489,emb490,emb491,emb492,emb493,emb494,emb495,emb496,emb497,emb498,emb499,emb500,emb501,emb502,emb503,emb504,emb505,emb506,emb507,emb508,emb509,emb510,emb511
book,-2.03003,-0.348494,-2.144,-1.69892,-2.72975,-1.46105,-1.50963,-2.33786,-2.93065,-3.99009,-2.0558,-1.09211,-2.52289,-3.26668,-2.39818,-0.656365,-3.34099,-1.46663,-1.83519,-2.1519,-5.23343,-2.95791,-2.30673,-3.04294,-2.31107,-1.62743,-2.10664,0.362486,-0.600387,0.564701,-1.58137,0.0548751,-0.277227,-2.39181,-3.68019,-3.00068,-0.574168,-1.83403,1.11172,-1.02319,0.432485,-1.15783,-1.84398,-1.66908,-1.59412,0.334346,0.380096,-1.15577,-1.65572,-0.579627,-0.887793,-1.30608,-2.78375,-1.5366,-1.34133,-2.03443,-2.22138,-4.28101,-2.47427,-2.69797,-2.1738,-3.02058,-2.02855,-1.27068,-2.00165,-1.1423,-2.25018,-2.47975,-3.91665,-0.269813,-2.4653,0.829941,-1.95081,-1.60339,-2.48733,-2.14833,-0.569983,0.190445,0.989573,-0.531686,-2.39945,-2.76239,-2.47335,-2.49064,-2.30029,-1.12789,-2.12583,-2.13292,-3.9859,-3.48903,-4.03026,-2.18409,-3.14863,-4.68586,-1.74916,-4.54885,-3.85775,-2.76349,-2.1482,-3.43801,-3.64133,-2.19115,-2.32463,-0.85095,-2.02766,-4.65397,-1.82649,-0.162904,-1.04868,-1.76024,-3.40607,1.49291,-0.232046,-0.576924,-0.856342,-3.37545,-3.71819,-1.60992,-1.77018,-4.75717,-1.18549,-3.56214,-2.84245,-2.51544,-1.59929,-3.72939,-0.00638187,-1.89719,-3.23284,-2.66036,-2.67919,-1.87487,-1.47311,-3.32119,-1.61671,-3.27769,-3.9296,-2.34838,-1.74055,-5.06601,-3.8296,-3.15098,-2.46093,-3.10915,-2.37451,-1.64461,-3.52043,-2.10448,-2.12681,-1.61832,-0.64434,0.0856574,-2.23875,1.40958,-0.616427,-1.01885,-0.629408,-0.970384,-1.9591,-1.75324,-0.802322,-2.26776,0.108137,-2.02202,-0.627222,-1.60896,-2.98581,-2.51703,-1.76595,-2.35442,-2.19027,-1.90824,-1.67458,-2.12644,-3.53755,-1.45258,-1.81937,-2.46203,-1.2285,-0.69102,-2.63808,-1.91322,-2.00438,-1.05794,-2.39849,-0.417546,-0.753591,-0.0694962,-1.21743,-0.923159,0.211539,-1.44749,-0.515449,-2.05115,-0.900527,-1.17036,-0.88873,-0.556685,-1.12086,0.17973,-1.7046,-1.67941,-1.37534,1.78187,-1.22735,0.237891,-2.22181,0.0339193,0.230996,-2.88161,-1.59532,-0.999046,-2.39407,-1.3399,-1.70155,-1.30757,-1.77136,-1.80265,-1.91945,-0.474923,-1.44754,-2.46476,-1.25711,-2.36295,-1.03863,-1.52158,-2.03239,-1.92758,-2.20997,-2.38691,-2.09574,-1.37312,-1.11419,-1.4505,0.0617415,-2.58669,-2.12694,-1.61751,-2.40285,-3.97423,-2.00998,-1.41093,-2.03341,-1.18455,-3.00411,-2.39309,-1.42771,-2.11195,-1.48695,-2.14209,-1.58671,-0.224777,-0.629733,-2.11776,0.756759,-3.10987,-2.09509,-1.90842,-1.64893,0.320234,-2.14908,-2.9853,-1.77531,-2.87111,-2.12768,0.190855,-1.64167,-4.39227,-2.32912,-3.98351,-2.41923,-4.41577,-2.53669,-2.46335,-1.82547,-4.16941,-3.44168,-2.51057,-2.6288,-0.49927,-2.69064,0.367034,-0.604782,0.0287867,-1.04853,-0.0323676,-3.67462,-2.00566,-0.157413,-1.13572,-2.00697,-1.83359,-1.8363,-1.67366,-1.88738,-2.58204,0.180356,-1.84769,-1.84909,-0.254054,-2.46989,-2.86126,-2.95771,-1.52996,-2.38605,-2.82803,-2.23213,-1.32021,-3.70806,-2.80013,-0.373207,-1.79508,-1.76824,-0.217439,1.33558,-1.89647,-4.5212,-2.8879,-2.93349,-2.89648,-3.4962,-1.06621,-0.559789,-4.4962,-2.15766,-2.59616,-1.26671,-2.32041,-1.01226,-2.55915,0.0641849,0.437629,-0.9935,2.10187,-1.14807,-1.6151,-2.25244,0.513026,1.11085,-3.87473,-1.91596,-0.383758,-1.99699,-3.62257,-2.19117,-0.61757,-1.38961,-1.23252,-3.50234,-3.35426,-3.0774,-3.66342,-3.82292,-0.206821,-5.31981,-2.73319,0.829436,-0.308573,0.132171,0.237676,-1.27958,0.592791,1.17374,-0.237627,-3.93024,-0.913885,-2.25411,-1.60251,-2.81255,-2.35523,-3.25934,-2.83814,-3.61066,-2.42519,-0.868373,-3.81969,-2.37239,-2.01538,-3.32069,-2.86706,-2.73005,-2.29149,-2.38014,-2.29025,-2.86082,-3.12158,-2.52995,-1.80511,-1.4182,-2.95772,-1.46293,-0.033399,-0.969352,-4.48558,-1.77961,0.534539,-2.17609,-1.64501,1.57181,0.547552,-1.66748,3.67487,3.77409,0.0110843,1.26667,0.719147,-0.669102,1.18424,-1.11947,8.03056,-1.99304,1.80838,4.83448,0.647706,4.05511,3.28437,1.81651,0.00451601,4.97582,4.80253,1.2556,-0.842982,1.89085,-0.527744,3.35129,-0.759927,5.20725,1.31922,0.689291,-0.985575,-1.51373,-2.04675,1.73629,3.28505,3.30207,2.74257,0.869107,-1.47101,8.6667,-1.2135,3.11559,1.98303,0.667252,1.75271,-2.53044,-1.09749,7.72097,2.30565,2.27738,-1.33389,0.405053,-1.54143,-0.457813,0.937747,4.29767,3.69183,-1.30143,0.0685928,5.43956,1.5749,-1.50677,-0.879159,1.11792,0.315944,2.79738,-0.030167,0.119061,1.96137,3.12381,-0.969446,2.14054,1.4565,-1.43995,4.20794,-1.21135,3.0409,-0.636801,5.94038,8.10362,0.927805,6.62361,9.82074,7.21325,-0.407985,-0.851961,7.7395,0.367284,7.3322,1.81422,-0.167724,-1.83857,1.24148,3.66211,-0.751336,-1.84494,-1.28838,0.872002,-0.857738,1.39391,1.26061,-0.965138,-1.80993,-2.72444,0.772352,2.3828,1.69871,-2.42541,5.52356,5.9027,2.20752,1.60862,0.779613,1.91543,1.22039,-0.0459916,0.462608,-1.16,-0.193235,-1.08909,4.34286,-0.04804,3.64443,0.507538,0.303,-0.920476,-2.31104,1.8659,3.52797,5.37237,1.62667,8.10518,5.76018,-2.02671,0.476119,4.41321,-0.0426045,0.15595,-3.20882,-1.04861,1.77308,-0.302521,0.967427,2.95627,2.47806,-0.541982,1.74201,5.43478,-0.978282,-1.07466,7.31663,3.08852,5.03215,1.27159,3.62852,-1.51328,0.629273,-0.0979267,-1.25786,1.58785,0.916522,0.750548,0.942421,-0.632399,4.21093,-2.45408,6.84861,-1.3852,1.65209,-0.579099,2.38221,1.87137,5.07676,-0.303543,-2.0188,2.42492,0.825874,-1.21412,0.0396221,1.05128,0.460808,-3.47925,1.86803,2.30855,0.190656,-0.0463731,5.17648,2.6302,3.65053,1.66979,4.5095,4.56106,3.43671,9.78123,5.25306,0.919408,-2.08896,0.51892,-2.51131,2.27578,0.0602283,-0.0186986,-1.34657,-1.18907,-2.75677,2.03538,8.56764,4.87596,-0.758985,0.670034,-0.238621,5.29329,1.81256,0.332097,4.04813,-0.734988,0.0451605,-1.36099,3.59834,-1.45757,0.801023,8.12492,0.114905,3.71812,4.3337,2.05361,-0.0781244,4.48607,-0.728667,0.0406485,4.31418,-1.40783,6.08651,3.55506,4.81808,-1.29303,3.72116,5.42638,5.85994,0.306469,-0.343179,0.507904,-0.416219,-1.09063,-2.12016,2.95186,-2.71336,-0.589238,5.24326,3.40836,-1.08412,2.44533,5.32247,-0.2967,0.825156,0.6787,0.664361,2.72175,0.178925,-1.85584,2.07345,0.370243,-1.33,9.92371,-2.64022,4.82038,-0.0457314,-2.13219,1.03683,-2.50623,-0.236349,1.64628,-0.776505,-1.34823,4.88106,4.60987,3.51705,-0.990846,1.18401,-0.016801,-0.794971,3.98074,6.07392,-0.734229,2.01145,1.00706,8.77748,7.14813,-1.6459,6.32801,-2.83756,-3.69429,0.888243,9.98618,-1.14851,-0.864218,3.39214,4.16287,1.00267,-2.06008,0.48971,3.93839,-1.61203,-0.501881,-0.836027,3.65503,0.0209876,-2.86254,5.38578,-0.816938,5.921,5.69701,6.17703,5.43173,5.03979,5.08973,-0.659937,-0.475292,-0.300594,-0.580953,2.86821,3.94485,3.77996,0.779768,-2.31414,-1.47457,1.16561,0.907074,-0.948779,5.93555,0.163119,-3.04106,1.45702,6.17423,-0.666832,0.218554,-0.237713,0.565035,4.71096,-2.01365,-0.0952039,2.99894,1.66402,6.43183,0.0896918,0.588896,7.68277,3.11781,0.252306,5.30786,3.33166,0.5872,3.16619,0.655193,0.466353,7.15562,-1.57676,-0.334918,3.01511,1.41562,3.94773,3.60088,7.18595,-0.389743,1.71857,1.88321,-1.37844,1.73032,6.68797,0.498385,6.58389,1.16625,7.74785,3.8934,3.81771,-0.554393,-1.28372,1.08123,-0.65648,7.58303,-1.64833,-3.02271,5.73643,5.97845,5.96115,4.31242,-0.179999,7.72077,-1.1399,1.89658,-0.112685,3.2105,1.86665,-0.164541,4.2231,4.47844,0.868532,-0.929523,2.95436,5.05516,-0.24996,0.927902,-0.132966,-0.893819,-1.3964,5.65161,0.0193512,-1.11563,-0.756782,-0.670968,0.346827,5.56584,3.21895,2.30781,2.41002,-1.67975,0.26703,-0.897324,1.88371,0.561117,3.92144,-0.0518793,-2.50052,0.256722,2.75496,-0.689663,-2.81837,4.36376,0.928043,2.38368,-1.05392,-0.017098,0.910056,-1.7463,0.202516,-2.53805,1.06127,1.7737,2.52608,4.64156,-1.68394,2.18265,1.3715,1.9893,-1.67403,7.24663,5.86406,-1.46655,1.29165,6.81562,0.260053,0.178539,3.8191,-1.12339,-2.44041,2.48764,3.85975,-1.83531,-0.818353,-3.77358,5.2463,2.88175,3.89713,0.360883,-1.5724,0.629459,2.35325,-0.5213,2.5112,8.41112,-0.547559,0.0223026,-0.401484,2.02789,-0.936343,-1.46831,0.618477,2.57134,0.523615,5.94347,1.00251,-0.513405,2.32187,3.88471,0.220967,-2.58954,-1.1803,4.59092,-0.771605,-0.924484,2.20545,-1.72383,2.73761,6.70993,6.88394,0.550394,0.99439,3.09941,5.03422,5.40895,2.85614,-0.488984,3.03044,2.45796,0.527318,-0.505271,-0.42476,1.98062,2.47767,-2.47977,0.400321,0.53065,0.997984,-3.09075,-0.117892,-1.7231,-3.30379,4.25667,2.14984,3.65573,3.82419,1.57255,8.74611,8.40705,0.0643146,-2.62195,-1.16898,-2.13809,-2.58438,-1.55129,1.84495,0.0331976,1.08439,0.712308,-1.43825,0.398584,-2.52294,-2.12509,0.0618068,-0.425366,-0.512935,-0.0266177,-1.17686,0.366195,-0.0707644,-2.36268,-2.20729,-2.79742,-2.87144,-0.535074,0.565942,-0.723312,-0.621084,-2.01326,-1.63261,-1.64653,-1.20808,-1.05572,-1.87381,-0.993801,-3.37324,-0.00412673,0.123181,-1.56777,-1.40757,-1.06746,0.38266,0.428718,-0.0318233,0.693886,1.50202,-0.802278,3.77513,-1.77645,-1.20094,-2.0073,-0.914193,-1.48952,-1.66895,0.349611,-3.64193,-2.62417,-0.372559,0.375028,-0.760323,-2.15542,-2.77723,-5.42614,0.246306,-3.90589,-3.65896,-3.1307,-3.27772,-2.30035,-4.00914,-2.80175,-4.35031,-3.52741,-2.9316,0.217111,5.07512
book,-4.31087,-2.81931,-3.50023,-2.66367,-2.11401,-1.76586,-0.795033,-1.06866,-2.12527,-1.42605,-3.33366,-2.43076,-2.78275,-3.01746,-1.75568,0.654889,-0.0681321,-0.441097,-0.694909,-0.703899,-4.73213,-2.60874,-2.12643,-1.2456,-1.44546,-3.10562,-1.8422,0.286817,-2.9883,-1.7633,-1.75605,-1.54017,-0.795616,-3.75634,-2.44283,-3.3711,0.225747,-2.14337,1.24295,-0.657863,-0.0553891,-1.80605,-2.77367,-0.373571,-0.97855,0.330827,0.896347,-0.411115,-3.64025,-1.11773,-0.17462,-3.22928,-1.71534,-2.10524,-1.45236,-3.8428,-2.45587,-4.53768,-3.38819,-3.75063,-3.45721,-3.82165,-2.31287,-2.7106,-3.15616,-2.4307,-2.38893,-3.795,-4.34333,0.57621,-3.8387,0.977608,-1.67159,-1.59535,-2.55951,0.00918844,0.489883,0.920886,3.43604,-0.896567,-4.29561,-5.50518,-2.44368,-4.01063,-4.59615,0.397907,-3.60191,-0.989874,-2.91431,-2.39759,-2.33487,-1.12574,-1.99345,-3.65518,-1.93783,-3.62796,-1.54022,-5.06384,-5.52603,-2.46019,-1.60432,-2.37617,-4.18244,-1.2054,-3.40494,-3.84293,-2.93763,-0.597115,-1.68408,-1.03788,-2.45853,2.14235,2.57931,-1.60194,-1.02822,-4.45631,-4.45512,0.176936,0.150487,-3.37836,-1.38485,-1.68403,-1.31164,-3.54294,-1.14985,-1.79806,-0.128261,-1.1512,-2.954,-2.25366,-3.7767,-1.05871,-1.72416,-2.17551,-0.951928,-3.48171,-1.31237,-2.79938,-1.44074,-3.68682,-4.56583,-2.71141,-1.27888,-2.7743,-2.6325,-3.42975,-2.91803,-2.37637,-3.13875,-5.18227,-3.4528,-1.06866,-1.57342,-1.21427,-0.139239,-1.02762,-2.24784,-0.754232,-3.34287,-2.69716,-0.64804,-2.52313,-3.35797,-0.812442,-0.716817,-2.84666,-4.09052,-2.66565,-2.50443,-1.18056,0.381395,-0.438244,0.733107,-3.51226,-0.586428,-2.11016,-2.72487,-0.614262,-0.804383,-0.673593,-3.35743,-0.0737829,-0.247005,1.3327,-0.361492,-1.06563,-0.985235,-1.60694,-0.749844,1.21201,0.439442,-0.657306,1.12105,-1.63023,-2.77927,0.383939,-1.5721,-0.404993,-1.49308,1.20762,-1.35659,-1.62627,1.00767,0.019564,-1.86463,0.371607,-1.22039,-0.999113,-0.508796,-2.29023,-2.53165,-2.17165,-1.54851,-1.7954,-1.36303,-2.77355,-3.7712,-0.856812,-3.10204,-0.422971,-1.83869,-3.09117,-0.588437,-0.263716,0.644471,2.62671,-0.30609,-1.9163,-2.17962,-2.49437,-2.03808,-0.783238,-0.436795,-0.567091,-0.729701,-0.0139128,-1.98977,-2.46159,-1.6961,-2.57653,-0.774361,-2.08113,-0.454453,-0.511925,-4.14545,-0.553382,0.0123027,0.190136,-2.51637,-3.8252,-2.84335,-0.756626,1.35356,-4.42151,2.25523,-0.84461,-1.35702,-1.85315,-2.44877,-0.818641,-2.15641,-1.35864,0.573267,-4.15094,-3.16826,-0.818492,-1.86458,-2.9872,-1.85305,-3.80667,-1.63158,-6.74171,-3.09464,-3.27329,-3.94656,-1.94431,-1.31347,-2.88351,-3.88157,0.519363,-2.39681,-1.98086,-2.97148,-0.754247,-0.911745,-1.41887,-5.3537,-3.1098,-1.6632,-1.52568,-3.86626,-3.63708,-2.04741,-3.83332,-4.34208,-4.1175,0.420872,-2.90177,-1.66162,-0.0322598,-3.03378,-2.7416,-3.06095,-1.60656,-3.79101,-2.32089,-1.71815,-1.86416,-1.81676,-1.71992,1.51288,-1.09198,-1.28631,0.514611,0.76074,-0.57857,-4.97621,0.168061,-3.7663,-1.74048,-4.01212,-1.52244,-1.41146,-4.08242,-0.238988,-0.969997,-0.497848,0.979907,-2.34245,-0.986362,-2.04258,-0.901803,-1.48028,2.21474,-2.14547,-3.82416,-0.496509,-1.00014,1.5144,-6.36539,-3.82792,1.08314,-0.715033,-3.2435,-5.49509,-3.43721,-2.65992,-3.32601,-1.66335,-4.11162,-3.777,-6.38438,-5.77093,-3.5746,-4.36454,-1.32396,1.57688,0.298023,1.01279,1.43364,-2.33376,1.86996,0.757623,-2.97533,-3.0806,-0.514137,-0.509646,-0.721969,0.389939,-1.13177,-2.12157,-2.78888,-2.58985,-1.30364,-2.31094,-2.25881,-3.04901,-1.41067,-1.41856,-1.01795,-2.02519,-0.861084,-2.19238,-2.15213,-3.0379,-3.30536,-4.20553,-4.59562,-1.87504,-4.33309,-2.46499,-1.72948,-3.21422,-3.37194,-3.36251,-3.11067,-3.97008,-3.0422,3.43349,-0.764271,0.648311,1.01879,1.03046,0.257389,1.37913,0.945927,-0.425363,-1.46019,-4.14787,6.09076,-0.303753,-1.17563,5.51108,-0.513324,1.32373,3.30454,1.93083,0.995459,6.74534,4.30218,-1.58512,-1.78425,2.28024,-2.29293,0.707386,-0.13164,5.49026,0.812403,4.23269,-1.27225,0.0329252,-2.3781,2.08696,3.40985,5.46332,1.29769,-0.988503,-2.62535,5.12701,-1.90638,3.15585,2.10502,0.492866,2.38126,-2.69681,0.631942,8.79329,3.46401,3.61187,-0.980686,-1.37179,3.15139,-0.827898,-1.01569,4.14613,4.70418,-1.92182,2.2068,7.73616,2.57938,0.297505,-3.20797,3.90263,1.74336,4.80922,-2.20246,-2.01445,1.15207,1.91495,-2.34539,6.67596,-1.772,0.304142,4.50226,-2.60476,2.58859,-3.85076,6.72151,9.8378,-1.91886,4.12656,10.4994,6.90255,-2.71749,0.362082,5.30492,-1.1995,8.89861,4.97419,3.78988,0.713421,2.02447,4.5355,-3.34025,1.80028,-1.20146,6.57495,-2.2171,-0.392832,4.29083,-4.19806,-1.92772,1.14976,1.03838,2.13696,1.93721,-2.8799,6.05742,6.73411,0.72657,1.51638,-3.42489,6.68085,2.73403,-0.920907,1.17352,0.0806354,-1.50298,-1.55559,5.66963,-0.975006,1.39383,2.53237,0.534449,-4.93107,-0.500113,0.395178,1.59296,5.19609,-0.271986,7.64446,5.10283,-0.814491,4.01641,3.64657,-1.62194,-0.241653,-1.76173,-3.30625,7.54425,-0.0281644,2.79796,6.38992,5.16386,-3.61307,0.357123,1.56828,-2.22423,-4.07744,7.75803,0.316401,8.95115,1.65392,2.39004,-4.85902,-3.50102,-2.34229,0.295574,2.1504,4.57125,-2.40098,-0.441395,-3.70277,6.14931,-3.66561,3.56435,1.24154,0.540515,-0.818863,-1.79158,-0.542012,3.16864,1.91558,-2.33305,3.77308,-0.389937,-0.267388,0.565105,1.3054,-0.914741,-1.88707,-1.57849,2.16009,1.99064,4.02725,7.09994,2.65229,6.27736,3.8269,4.62671,5.01965,6.01403,8.33054,8.6043,-0.0997328,-1.05764,5.11444,-1.12916,-2.01347,1.86908,3.13348,-2.48903,-2.48851,-3.71175,4.21524,11.231,0.60026,-3.39811,3.1789,-1.45279,4.39371,3.25038,-1.03922,2.78797,-2.41567,-0.0954706,1.50039,2.01328,-1.47773,1.46887,6.29537,-0.950871,2.24447,7.18103,2.40041,-2.53053,11.3822,-2.11493,-1.3048,7.85906,-0.785641,8.96592,2.06583,8.96262,-1.5102,4.92798,4.72746,6.72578,-0.387097,0.539142,0.558277,0.210701,-1.47289,-2.37541,10.7814,-3.23754,0.910431,3.16051,2.28148,-2.08682,3.60277,0.559673,-1.23931,-1.36511,-1.27135,-1.04319,-1.49446,0.749649,2.54857,1.93273,-3.01178,-2.07982,9.92501,-3.98089,1.08471,-0.924118,1.0625,6.29057,-1.91165,-1.89754,-0.65848,-1.99673,-1.39215,4.97395,6.74357,1.11303,0.295765,3.45114,-1.372,4.1276,2.61145,5.73715,2.14566,3.91958,1.02117,3.57537,5.47009,-1.9557,2.17321,-4.03918,-5.10705,-0.495076,10.8411,2.40886,-2.60787,11.0532,7.12388,-0.779694,-2.49214,2.49352,3.7859,0.145425,-0.713714,0.183019,2.84193,-1.12148,-3.69264,3.65577,-0.288814,8.40787,8.69828,9.44182,3.2635,2.48358,9.30298,-2.58546,0.401961,-3.21446,-1.45501,0.885859,4.6513,1.63524,2.86071,1.93343,-2.23205,-0.491312,3.96947,-4.81625,5.48308,0.235415,-1.85173,2.99856,6.99876,3.22396,-0.422919,1.44618,0.166552,4.62746,-0.887038,-1.53222,2.41255,2.19004,4.68508,-0.914172,0.866942,5.53914,2.372,0.318292,6.84285,3.98515,-2.4696,-2.03807,-0.243668,-1.04263,7.92362,1.1566,-2.11328,-1.66729,0.0368721,2.48698,2.66401,8.15429,-0.971784,2.43945,2.37465,0.567657,-2.89616,12.4999,1.47392,5.68649,0.185372,5.17319,5.69056,3.57021,1.76264,-0.228175,0.166944,1.83482,6.69908,-1.53988,-2.04149,2.67443,2.63581,5.73172,6.29625,1.73012,4.57337,2.28494,0.986634,-1.5843,4.39934,2.21338,3.50586,3.00595,0.521666,0.79544,-1.64124,2.41235,3.20567,-2.50772,-1.79983,-0.159514,-2.1548,-1.26968,4.57338,0.545868,0.557399,1.77462,-1.09409,1.96882,4.60511,-0.0197544,0.856716,2.62384,-1.94414,-0.451163,2.05116,-4.54244,1.30923,-0.516136,-2.77873,-5.19761,0.581738,2.57027,2.25619,-1.58975,4.74474,-2.03544,0.543158,-1.41884,1.083,-0.0208209,-3.42551,-1.12028,-2.94354,1.50658,2.6281,2.41137,8.69541,-4.64311,4.90502,0.732719,0.665838,-0.795836,9.0624,6.87455,-1.03147,-0.412561,7.70069,-3.83646,-0.0509149,1.3718,2.26607,-2.90158,-0.496821,4.91467,-2.64762,-0.448792,-1.23912,1.02463,4.69998,2.40751,0.521841,-3.37058,-2.42862,-1.41974,-1.32262,-1.4986,4.95035,-0.831938,-0.930679,0.347864,1.71113,-0.289333,-2.96255,1.96588,2.38671,1.75284,4.13838,1.56894,-1.55886,1.4614,1.84897,-0.866201,-3.49907,-0.32381,3.82504,0.80809,-0.242448,-1.77994,-1.87635,2.97405,4.98761,7.80208,-1.29024,1.59682,2.34135,1.38621,4.11073,1.25327,1.91241,4.40681,8.26845,-0.307255,-0.280442,-3.03846,4.48954,6.47843,-0.480846,1.12396,2.19392,5.8244,-0.330039,1.41421,-2.23765,-4.82722,2.95007,1.74742,3.65182,9.60037,3.24898,12.566,6.67178,1.40979,0.140638,-0.0646245,-2.14748,-4.01041,0.743485,5.42101,-1.07419,-0.833962,3.00765,-1.76392,0.663463,-1.596,-1.11154,-0.179884,0.134595,0.815248,2.30359,-1.20331,0.828819,3.35634,-2.81173,-2.09925,-4.98579,-2.68913,2.22884,2.8755,0.7114,0.852695,0.647283,-0.787111,1.73956,0.453869,-0.916613,-0.578099,-0.364257,-0.752575,1.88566,0.465852,-1.33986,-2.37259,-4.75665,-0.610167,4.29078,1.51609,1.3927,4.02671,-0.930751,-1.43677,-2.55042,-2.27874,-3.29215,-1.21907,-2.71357,-1.02331,-1.3057,-1.85848,-2.67811,-2.40408,-0.819326,-1.19741,0.639532,-2.57024,-6.83825,0.763857,-2.69148,-1.2666,-0.379625,-3.00569,-4.08776,-2.36649,-2.13952,-2.11637,-2.42407,-1.41301,0.334636,5.45011
book,-3.55403,-1.49207,-2.79602,-2.48819,-3.96365,-1.39672,-1.47791,-2.62825,-2.72593,-2.60975,-5.33849,-2.39727,-3.46905,-4.3167,-3.71329,-0.983192,-3.07431,-1.46255,0.234691,-1.89578,-6.83606,-5.16021,-3.82146,-2.552,-4.00339,-1.72647,-1.3522,0.349689,-2.33537,1.26594,-3.52115,-0.629578,-1.30111,-3.17717,-3.69072,-3.58737,-0.417776,-1.93497,0.655115,0.673405,0.382951,-2.84452,-3.23393,-1.28317,-1.65529,2.52621,0.620768,-1.9529,0.789164,-1.5654,-2.56979,-3.86333,-2.29314,-3.16232,-0.501634,-3.85626,-2.45138,-6.39833,-3.8078,-4.08133,-1.94695,-2.96566,-2.817,-1.87781,-3.68744,-1.35005,-2.0217,-3.60056,-4.79951,-0.481979,-2.5261,0.837541,-3.37067,-0.972,-3.20234,-2.52208,0.658903,1.23635,0.914365,0.246937,-3.84043,-5.16438,-3.31387,-4.05204,-2.75017,0.224136,-3.46276,-2.50666,-5.27808,-3.90113,-4.78856,-0.799903,-5.16898,-4.80673,-1.73311,-6.80395,-5.10351,-5.299,-4.67018,-5.4207,-5.03789,-1.38389,-1.61307,-0.48869,-3.30205,-4.17267,-0.200129,-0.158301,-0.920336,-2.20614,-2.93307,2.94385,0.140393,-1.38663,-1.3763,-4.30971,-3.74465,-2.32936,-1.66199,-5.43269,-1.69068,-4.33472,-3.59122,-3.51953,-2.53251,-4.21973,-0.0103877,-3.27678,-4.85916,-5.01707,-4.56495,-3.64014,-4.04734,-3.63215,-2.94287,-6.0469,-4.34764,-3.08429,-1.68347,-8.15168,-7.119,-4.86855,-5.74156,-5.32614,-4.18724,-2.47025,-5.9127,-0.757001,-1.57632,-1.0877,-0.0892948,1.12271,-3.01421,0.371445,-0.604018,-1.42875,-2.72722,-1.23257,-2.3279,-1.81912,-0.0120875,-3.28871,-0.843611,-2.52321,-1.36753,-2.93802,-4.20575,-3.12672,-3.41227,-2.8846,-0.496484,-1.72446,-0.939813,-2.28213,-3.71342,-2.41853,-2.38771,-1.57763,-1.08491,0.374091,-2.4087,-1.69277,-0.620106,0.338288,-2.06471,-0.803718,-1.26787,-0.580903,-1.85788,0.321059,0.119971,-1.72452,1.11278,-1.60883,-0.996459,0.215862,-0.456766,0.103956,-1.39089,1.37474,-2.24684,-1.53097,-0.808012,1.91316,-1.66556,0.944417,-0.5652,-0.937353,0.771953,-3.7382,-1.96386,-1.21363,-1.95348,-1.72282,-1.80291,-2.07888,-2.48422,-1.25484,-3.18619,0.197091,-2.21677,-1.66842,-1.13703,-1.19568,-0.0158115,-0.284542,-0.556511,-2.07405,-2.07489,-2.73038,-4.1205,-2.17209,-1.00165,1.23693,-0.342464,-2.65012,-2.61822,-1.35309,-3.08262,-5.82156,-3.37469,-2.93983,-1.20629,-0.167977,-3.98607,-1.00773,0.031478,-2.63615,-3.15083,-3.963,-2.7964,-0.420994,0.653945,-3.68715,1.9676,-2.8474,-2.30331,-3.1568,-2.47951,0.521565,-2.83841,-2.75922,-1.29352,-4.6164,-2.57691,0.513798,-1.61243,-4.27444,-0.00337554,-4.9222,-3.6474,-6.35019,-3.67304,-3.91829,-2.31858,-2.99949,-1.63085,-2.61362,-2.06844,-0.113535,-2.43189,-0.0613852,-1.3414,-0.14787,0.141809,-1.03235,-4.93534,-2.41042,-0.366182,-1.31093,-2.5975,-2.68971,-3.07848,-2.99891,-1.11407,-1.23854,1.22044,0.768084,0.129414,0.221193,-3.25131,-3.85739,-3.23511,-1.49724,-3.31953,-3.48138,-1.53281,-2.84451,-4.29295,-4.12385,1.73144,-1.58784,-1.53453,1.38394,2.54893,-0.520625,-4.29186,-2.24631,-2.25525,-3.31712,-5.26789,0.431353,0.0297629,-6.30677,-1.48263,-2.15604,-2.21422,-2.44096,-1.0156,-0.778715,-0.516651,-1.69521,-2.45588,2.68329,0.451557,-2.64691,-0.876742,-0.570983,-0.0512182,-3.75095,-1.49553,2.42766,0.0320405,-0.312268,-0.674135,-1.14709,-1.08963,-0.0315744,-3.08156,-4.26028,-4.556,-4.40144,-6.50469,-2.07751,-3.64289,-0.960829,1.79528,1.11332,1.99946,1.2277,-1.0614,3.67854,3.57736,0.446838,-4.03105,-0.629513,-2.56117,-1.20729,-3.01733,-2.75154,-3.15802,-3.2711,-3.73364,-3.84534,-2.52843,-3.5553,-4.41056,-2.31861,-3.5464,-2.84627,-2.61956,-2.11161,-3.87665,-2.79695,-3.50548,-1.67869,-0.862018,-1.09836,-0.380933,-2.76913,-0.992775,-0.216514,-1.1671,-4.73901,-2.54035,-0.643986,-2.8981,-2.30585,0.663133,0.16143,-1.64678,3.44789,1.58682,-0.994792,1.23724,1.79936,-0.146435,2.64887,-2.05453,7.73759,0.0246255,0.0757476,8.29915,-0.968471,4.51324,3.51972,3.76927,0.473721,4.73749,5.8683,-1.08684,-1.32527,1.09601,-1.24537,4.67166,1.91262,5.63401,4.17295,2.83616,-3.05754,-1.66963,-1.29115,0.544044,1.4118,6.49639,5.19336,-1.05566,-2.03847,9.3579,0.103381,2.8689,2.12911,-0.0937815,1.52989,-3.54926,-1.62494,10.9423,2.69017,2.65488,-0.538011,-0.221756,-2.50613,-0.582603,1.75443,5.69711,2.31244,-1.50598,1.47274,8.87062,2.96358,-1.31635,-2.09548,1.69203,2.92978,4.29294,-0.296358,-0.00699198,1.69777,2.58251,-2.67048,3.22823,0.0233496,-1.69465,3.53788,-1.67059,5.7306,-1.81774,5.12336,12.4203,-0.909235,7.40531,12.4638,9.87878,-1.27913,-1.05862,9.1196,-0.613274,6.39757,0.695471,2.69882,-2.95651,0.369557,6.78023,1.81415,-1.48881,0.698437,1.98599,-0.196833,1.79808,2.59791,-0.43308,-1.75558,-2.47861,0.136295,3.37534,2.22712,-3.56076,5.7776,4.88351,1.49955,2.9327,-1.10759,0.776546,-0.489459,1.96859,1.2357,0.698797,-0.825198,-1.70533,9.33162,1.05065,5.6072,-0.927685,0.715624,-2.70303,-2.17846,1.86735,4.96047,4.03807,0.95746,10.478,6.12697,-2.25674,0.334426,5.84995,-1.83289,0.833199,-3.16348,-0.68014,6.56954,-0.557227,1.70532,4.07812,0.659219,-2.42104,1.17205,1.64467,1.70552,-0.210895,10.5258,2.87667,7.69915,2.24616,5.66165,-0.207131,1.4578,3.4441,-0.336787,0.316348,0.529331,-1.3044,2.88105,-1.45514,4.63471,-1.39246,9.9846,-3.52808,-0.0735037,-1.81511,1.01638,2.52549,8.31618,-0.0751429,-2.75298,0.100923,-0.286693,-1.59347,0.118866,0.360667,-0.151479,-1.88926,0.862602,1.36343,0.357653,-0.974374,5.45934,1.67079,3.30845,3.45897,2.91163,2.86687,5.02262,8.10846,5.30726,0.303295,-2.29016,0.0227595,-2.9316,3.09195,1.74417,0.405146,-1.79386,-0.74721,-2.28344,2.10117,10.4705,3.54261,-0.1394,3.11564,-0.619143,4.31579,1.73865,-0.783665,2.11955,-0.154495,-0.34454,-1.51421,2.28297,-1.86187,2.41367,7.51288,-2.14259,3.36434,4.68256,3.41622,1.45562,7.82536,-0.175465,0.272188,4.98572,-1.04949,6.65706,5.22545,5.09079,-0.0716396,3.12408,7.52505,8.94642,-0.427419,-0.946276,2.00474,-3.21802,-3.23516,-2.69364,3.92684,-3.672,-1.08802,6.84649,5.67217,-1.43364,1.65216,8.30662,-1.74488,1.31933,1.37662,1.2283,2.06089,0.182009,-2.01421,2.34692,2.06757,-0.680526,10.628,-2.23218,6.01559,-0.198302,-1.23654,0.32332,-2.59832,1.5229,0.60814,-2.54875,-1.4812,4.1008,4.06268,6.01044,-1.93893,-0.764805,0.480943,-2.02389,4.29174,5.58044,0.451467,-0.188559,-1.79142,8.54038,6.50308,-0.773977,7.97597,-2.95559,-4.11933,1.06663,11.4541,-1.15267,-0.375584,5.90945,4.05265,-0.373665,-2.23641,-1.11321,5.90702,-1.43784,0.762313,0.596243,5.51789,3.0886,-3.64371,6.01721,-0.0287627,8.76832,6.04262,8.83233,5.26867,7.28659,4.18471,-2.74543,1.28415,-0.473331,-0.486523,-0.226616,3.0347,4.46441,-0.559957,-3.00896,-0.968318,1.59745,0.820272,-1.20958,5.96777,-0.353633,-3.93287,0.795513,7.66548,1.24486,1.58018,-1.33233,-0.616316,5.42257,-0.239626,0.699859,1.50928,2.36953,6.18911,1.28708,0.221509,8.1932,2.74161,1.25657,6.67339,4.71282,-0.464543,-0.256446,-1.97248,2.18008,9.38497,-1.30961,0.664554,3.76892,-0.489199,4.69326,5.29369,5.11914,-0.700774,0.876909,2.04759,-0.572099,1.5753,7.67811,1.1041,6.82517,1.19653,10.343,2.83339,2.80124,-0.250244,-0.528212,-1.18814,0.896291,8.15789,0.923329,-1.79243,7.15347,8.31787,3.58979,4.06489,1.50459,6.92765,0.00681615,2.2795,2.4309,3.74966,1.34015,-0.512736,2.86932,5.57869,0.299314,-1.21194,3.38291,7.01317,2.79998,-1.08602,-0.527824,-2.63429,-0.20644,7.39971,-0.260217,-0.199003,-0.322005,-0.710014,-0.272623,3.75004,4.29562,2.45221,0.968038,-3.14478,1.25983,-3.15033,-0.6907,0.0125578,3.04246,-0.240968,-2.9616,0.43302,1.8524,0.992842,-1.99021,2.4697,-0.00556278,0.885083,1.50737,1.01308,1.30732,-3.70988,2.28942,-2.72856,1.65383,1.61912,2.63898,6.85227,-1.6769,2.31627,0.904291,-0.232771,-0.901527,9.2113,5.87913,-1.94017,0.425058,9.27662,-1.58244,1.49063,6.57733,-1.07986,-2.16369,3.64381,3.30999,-2.68155,0.604275,-2.19968,5.52567,4.07361,3.77519,-0.844816,-1.65243,0.330782,1.84484,-0.187389,4.32653,8.81416,-2.07371,-0.560087,-1.16688,0.81,0.358532,0.772491,-0.170181,4.87411,2.49977,4.67538,1.27484,-1.35559,3.87424,2.13898,0.104191,-1.38635,0.361038,7.254,-0.326351,0.0667824,0.663062,-2.52625,0.610524,6.48845,10.261,3.63815,0.646409,3.63152,7.96736,5.41632,3.29577,1.06412,3.85816,1.56848,-0.481919,2.72713,1.24843,2.87045,3.9632,-1.92434,-1.08988,0.391872,1.68851,-1.18654,1.72206,-0.269916,-1.00052,3.49051,2.54886,3.03186,5.57998,4.05692,11.9903,9.45278,-2.43796,-2.51179,-2.2952,-3.759,-3.37927,-2.04233,2.96321,-0.761319,0.632722,-0.102567,-2.51084,1.03248,-5.32529,-2.27754,-2.08908,-0.342606,-0.513012,-0.7377,-2.6093,-0.157251,-0.948232,-2.85984,-3.88735,-3.75283,-3.98913,-1.83657,1.31576,-0.529937,-1.10934,-0.748949,-2.01946,-0.911595,-1.51035,-3.27653,-1.79001,-0.72108,-5.58366,-1.18205,-0.557505,-2.25571,-1.3716,-3.46521,0.0715667,1.78553,-0.48575,2.57805,1.23688,-0.480426,2.24804,-1.26053,-1.4603,-3.84102,-1.47179,-1.3649,-1.18251,-0.717318,-3.86181,-1.87546,-2.96371,0.453332,-0.237698,-0.776658,-2.72933,-6.99155,0.0695291,-4.85515,-4.89777,-2.67738,-4.20375,-4.61486,-5.43062,-4.40095,-4.7997,-4.6452,-3.75804,-0.3992,6.43284
book,-4.09522,-2.44777,-3.99698,-2.65344,-2.42823,-1.49736,-1.65549,-1.24095,-2.14824,-2.13457,-2.41575,-2.67092,-2.81184,-1.95465,-1.90484,1.3385,0.471563,0.524914,0.414083,-0.301659,-4.13559,-1.21668,-2.26622,0.103117,-1.60919,-2.15799,-1.58191,0.219514,-2.78084,-1.56799,-1.33947,-1.94817,-0.270443,-2.32826,-0.689537,-1.72561,0.911585,-0.798735,1.26558,-0.87863,-0.447856,-1.15331,-2.03103,0.626026,-0.786439,1.11515,0.0350527,-0.0505213,-3.16372,-1.24084,-0.923183,-2.7436,-1.83341,-1.83171,-0.247388,-4.43976,-3.15543,-3.90417,-3.62554,-3.2668,-3.05747,-3.83232,-1.97396,-1.41952,-2.74675,-2.29605,-1.68823,-2.32494,-3.1077,2.51519,-4.25509,0.932687,-1.17839,-0.74247,-2.27522,0.38394,0.764496,1.9496,2.65194,-0.152668,-2.82211,-4.16994,-1.25474,-3.01289,-3.83019,1.35084,-2.75364,-0.754545,-2.55951,-2.23281,-2.55073,-0.628055,-1.90991,-2.51492,-1.91341,-2.62116,-1.74357,-4.27775,-3.63185,-2.23414,-2.52176,-1.86562,-2.40588,-0.541272,-2.67353,-3.70241,-2.24291,-0.964398,-2.22773,-0.827826,-2.11415,1.13069,2.02047,-0.990755,-0.485685,-4.78114,-3.65768,0.62077,-0.121338,-2.71658,-1.35071,-2.07581,-1.60516,-3.79577,-1.52138,-1.83961,0.600226,-1.44788,-1.51382,-2.86259,-3.89651,-0.816069,-1.98632,-1.56713,-1.19338,-4.04685,-0.309726,-1.53285,-0.805434,-1.58154,-3.94062,-2.82872,-1.28988,-1.4132,-2.77631,-3.20898,-2.15427,-2.22302,-3.09421,-4.87171,-3.31068,0.0599359,-1.13929,-1.4152,0.428515,-1.03256,-1.54115,0.312457,-1.82562,-1.82669,0.0745326,-1.60234,-2.46857,-0.298469,0.434757,-1.14865,-3.09796,-1.79124,-2.10418,-0.650107,-0.135414,0.34922,1.42414,-3.18097,0.238564,-1.80019,-2.14397,-0.923702,-1.12021,0.594494,-2.53178,-0.202078,0.643231,0.676611,-0.674876,-1.03821,-0.73158,-0.501901,-0.215955,1.29887,-0.0344594,0.500053,0.691332,-1.18666,-2.25271,1.17601,-0.713573,-0.317747,-0.93901,1.14412,-1.50125,-1.40591,1.4287,-0.767615,-1.94847,0.218252,-0.991941,-0.699514,-0.471846,-1.95988,-2.20126,-1.73558,-1.01604,-1.4354,-0.552923,-2.16284,-3.44037,-0.949717,-2.27806,0.00676954,-1.11585,-2.80885,-1.28605,0.0576195,1.16611,3.38257,-0.133376,-1.29342,-2.57949,-2.37797,-1.6252,-1.05792,0.0785914,-0.471347,0.020798,1.28881,-1.07985,-1.14656,-1.53108,-2.10946,-0.803499,-1.94126,0.136102,0.450629,-3.32857,-0.318533,0.76706,0.581896,-2.42012,-3.28283,-2.57148,-0.791794,0.735754,-3.75298,2.29961,0.667762,-1.30194,-2.37933,-2.79789,-0.49936,-1.88565,-0.0414515,1.39671,-3.56023,-2.68329,-0.42734,-1.37149,-2.49565,-0.195854,-3.69038,-2.21639,-5.63265,-3.245,-2.58885,-3.33957,-0.524159,-0.706416,-3.10217,-3.81838,-0.0597588,-1.94988,-1.06,-2.52846,-0.420125,-0.826425,-0.902138,-5.06081,-3.43146,-1.21159,-1.498,-2.90135,-3.4372,-1.25388,-3.48829,-4.11053,-4.26797,-0.145685,-1.96781,-0.969682,1.32944,-3.29028,-2.74767,-1.67014,-1.81694,-3.99414,-0.604007,-1.194,-1.43586,-1.7694,-1.07765,1.46502,-1.97612,-2.06905,0.794283,1.01381,-0.301283,-3.7991,-1.08104,-3.28661,-1.15747,-3.91441,-0.907281,-0.88898,-4.42697,-0.853408,-1.39752,0.236953,0.779377,-2.03566,-2.10708,-1.71718,-0.60133,-1.54752,2.08547,-1.45471,-2.49547,-0.2003,-0.67305,1.8535,-6.31075,-3.66242,1.68338,-0.290984,-2.59906,-5.24956,-3.36251,-2.27758,-3.20368,-2.0794,-3.66662,-3.52653,-4.92664,-5.3647,-2.88184,-3.87294,-2.10672,1.60002,0.295082,1.89992,1.86308,-2.66829,2.46086,1.03254,-2.06473,-3.15145,-1.28315,-0.253869,0.0466979,-0.0630696,-1.05619,-2.11237,-2.56364,-2.77074,-0.919739,-2.50362,-1.97081,-2.93583,-1.0328,-2.26951,-1.47542,-1.97348,-0.947597,-2.2413,-2.17664,-2.25368,-2.73909,-3.76268,-4.35477,-1.82632,-3.79902,-2.0951,-2.19603,-2.42545,-4.13999,-3.48202,-2.44544,-3.55574,-2.77193,3.18376,-0.309839,1.11102,0.188523,0.523075,-0.595799,1.15881,1.72271,-0.560982,-1.2949,-4.4911,4.95864,0.437464,-1.72066,5.81063,-0.452099,0.659485,3.35614,3.05678,1.62316,6.8265,4.11838,-2.19729,-2.33517,2.34041,-1.69105,1.05919,-0.140855,5.20229,1.68658,2.8669,-0.747458,0.762938,-2.77019,1.96089,3.22179,4.31456,-0.623073,-1.47095,-1.29767,4.04155,-0.231948,2.52559,2.34471,1.46646,0.0332792,-2.65912,0.370021,9.06772,3.30368,3.04238,-1.10613,-1.64606,2.42122,-1.88609,-0.414316,4.34543,4.60698,-1.33677,1.38159,8.71806,1.37365,0.00380957,-2.69166,3.32937,1.08879,3.22341,-1.14056,-3.01148,0.718483,1.11686,-1.65234,6.11501,-1.47871,-0.00846714,4.8226,-3.6222,1.50237,-4.2617,5.84425,10.8264,-1.54477,4.30848,8.31351,5.41163,-2.5929,0.805792,4.55313,-1.66583,5.64706,3.60708,2.29649,0.177741,1.59716,4.79426,-2.73317,2.06663,-2.10733,4.85265,-1.81925,-0.160464,3.72252,-3.40421,-1.72733,0.329192,-0.197048,2.39717,2.14377,-2.57034,5.14198,5.12782,-0.084601,1.33528,-3.96969,6.24447,2.46274,-0.424928,0.212617,-0.941232,-0.983787,-0.64889,6.86601,-1.68856,1.88583,2.80628,0.13087,-3.84603,-0.410073,-0.0971856,1.24478,2.89725,-1.80414,6.5235,4.14602,-1.03423,2.47773,3.03031,-2.16968,-0.331713,-1.89143,-2.75617,7.48901,0.0794723,2.88218,6.29251,4.8811,-2.86669,0.407689,0.519681,-2.59364,-3.57934,8.24072,1.36224,8.45567,0.58223,3.14425,-4.52188,-3.56568,-1.71828,0.586074,1.68863,3.40919,-2.17935,-0.062104,-3.14013,6.29235,-3.7961,2.59429,1.47569,-0.0186124,-0.884491,-1.74913,-0.55193,2.12939,1.0452,-2.84545,3.62478,-1.13818,-0.948668,0.671005,0.287026,-1.01017,-2.86883,-2.05363,2.43984,2.57211,2.25408,5.13281,2.21393,6.4669,3.52296,4.06563,3.15301,4.20423,7.38305,7.03221,0.318283,-1.32036,5.10824,-2.06912,-1.67599,2.40969,1.81936,-2.24466,-2.31545,-4.04412,3.52867,8.31448,0.878372,-3.17049,3.0932,-1.89853,4.52407,3.24554,-1.55133,2.77713,-1.95253,0.464346,1.43798,1.93479,-1.54025,0.646605,5.09674,-1.07302,2.55767,6.79835,3.35687,-2.51502,10.6393,-3.24754,-0.948265,7.06966,-0.916146,6.9602,2.15356,9.25623,-0.616861,5.58985,3.10832,6.08995,-0.636143,0.219179,0.46914,-0.103589,-0.867444,-2.3406,10.9493,-3.00252,0.853662,2.99475,0.747916,-1.15871,2.80131,0.329649,-0.86474,-1.54192,-1.60694,-1.1105,-1.45994,1.30677,0.938856,0.215525,-2.99012,-2.37394,9.15541,-3.23259,1.83022,-0.530046,0.520221,6.27947,-1.69458,-2.24416,-0.251013,-0.555216,-0.575747,4.10948,6.70366,2.15555,0.207174,4.29234,-0.954357,1.9093,1.15919,4.96384,3.50064,3.88209,-0.224195,1.78276,6.13279,-1.97882,1.6177,-3.29866,-5.12921,-1.22413,11.2426,2.0672,-2.96171,9.69364,5.90076,-0.984037,-2.67222,2.76517,3.09959,0.442074,-0.594279,-0.505945,3.3782,-2.09373,-3.55185,1.92511,1.79606,5.68886,7.60969,8.77574,2.03895,2.38309,7.65468,-0.675588,0.176485,-3.94975,-1.59711,0.244151,3.79439,0.908033,1.97653,1.79199,-2.00784,-0.935395,4.25534,-3.73758,6.05012,-1.04692,-1.93304,3.20388,6.47248,3.16588,-0.326899,0.00609607,-0.0480069,3.34952,-0.656128,-0.180308,2.20521,2.47388,4.45993,-0.465211,1.43238,5.11794,2.30352,0.198781,3.97601,5.86413,-2.26973,-2.01443,-0.764291,-1.11541,6.31555,1.08824,-1.8443,-1.37711,0.107574,2.95853,1.47629,6.1973,-1.13927,2.36134,2.66779,0.295242,-1.72314,11.0452,1.90907,5.0908,0.3115,5.70278,4.10421,1.87057,1.34277,-0.491935,1.09917,1.02762,5.26122,-1.64027,-1.23606,2.81059,3.04765,5.53923,5.81099,0.762776,4.26965,1.9365,-0.237964,-1.15646,2.84929,0.708312,2.89534,1.74253,-0.944133,0.896662,-0.971932,2.57544,2.61355,-2.98441,-2.03085,-0.43873,-2.32836,-2.2514,3.77327,0.548725,-0.348745,2.71498,-0.958144,0.82631,4.32963,0.706268,0.0515649,1.91642,-2.2356,-0.865174,1.21314,-4.46122,0.372778,-0.719334,-3.05458,-4.37241,0.500081,2.80475,1.48704,-1.75508,3.50954,-0.904664,-1.23652,-1.54191,0.85468,-0.582222,-3.31561,-0.983545,-2.01171,2.97084,1.97146,2.41684,7.37277,-4.69703,3.6126,1.23797,0.53266,-1.54833,7.17697,5.97046,-1.03582,-0.825851,6.0772,-4.68336,0.00226378,1.34777,1.75746,-3.66471,0.170203,4.7627,-2.71354,-0.167874,-1.63279,1.10111,5.27293,1.48043,0.59159,-2.84088,-2.97003,-1.30086,-2.11359,-2.2748,3.728,-1.37118,-0.754497,0.823056,2.39313,0.199281,-2.99004,1.32892,0.175506,1.48094,4.4965,1.39663,-1.28595,1.75745,2.06614,-1.69844,-3.22648,-1.1841,3.36526,0.151591,-0.104767,-1.95143,-2.04054,3.40396,3.12894,5.88365,-0.697158,1.10653,1.48114,0.654137,3.2579,0.932105,2.36079,3.66293,6.45715,-0.82442,-0.823694,-3.92099,4.27605,5.55419,-0.574182,1.1,1.55878,4.8073,-0.411464,0.493365,-1.08109,-4.70859,3.37912,2.89697,3.89375,9.21389,3.50746,13.4821,7.66948,0.981986,-0.0618225,-0.911551,-1.69712,-4.3516,0.293191,3.9744,-0.26347,0.177838,3.10959,-0.693264,0.645039,-1.62247,-1.28693,-0.448713,-0.577454,0.427372,2.48224,0.222758,0.0358045,2.13003,-2.42256,-2.24504,-3.94021,-1.9693,1.23503,1.74522,0.414587,-0.248647,0.801919,-1.02558,0.864182,-0.881629,-1.07646,-1.73203,-0.843869,-1.41195,1.85053,0.0639863,-0.838377,-1.0231,-3.21149,-0.254799,3.84813,1.76053,0.842487,2.6287,-0.0655822,-1.68825,-1.22433,-2.7082,-1.89754,-1.37612,-2.13103,-0.814029,-0.418754,-1.33412,-1.92892,-1.0281,-1.59032,-2.06348,-0.446034,-3.17108,-6.31999,1.33893,-2.52692,-1.02709,0.394985,-3.12147,-3.69363,-1.32269,-0.701427,-0.96084,-1.3309,-1.17887,1.30161,4.57
book,-4.19786,-2.4058,-4.21284,-1.78685,-2.36442,-1.23009,-0.680911,0.143405,-0.854499,1.02208,-2.32289,-3.37715,-2.82958,-3.20448,-1.11378,0.857951,0.273621,-1.13438,-0.338086,-1.96972,-2.75122,-0.583917,-1.43379,1.2335,-1.83218,-0.947432,-0.820976,0.984389,-2.24754,-1.30238,-3.31289,-3.17825,-2.39648,-4.75099,-2.827,-2.90694,0.186694,-2.16063,-0.759825,-0.461183,-0.511527,-0.915015,-2.02764,1.36939,-1.28043,1.90808,-0.355678,-0.852609,-2.37364,0.866047,1.1239,-4.02163,-2.06052,-2.10373,-1.26193,-5.04332,-3.68061,-3.94961,-3.98516,-3.85383,-3.82469,-3.48635,-2.41275,-1.60177,-3.1413,-1.78176,-2.03375,-4.03162,-4.32133,0.143649,-3.71482,0.710021,-1.77409,-2.16136,-3.4853,0.811172,0.366769,0.342629,3.15614,0.0492685,-1.75351,-4.34675,-1.86631,-3.27194,-0.456125,1.79325,-2.58621,-1.42434,-1.52798,-1.24723,0.711564,1.52576,-1.09203,-1.41127,-0.323344,-0.628932,-1.0317,-3.37084,-3.18371,-1.58548,-0.0866095,-0.478778,-1.57608,1.99308,0.0813815,-3.00245,-0.51865,-0.360428,-1.59103,-2.15532,-0.781961,2.47855,0.412024,-1.45496,0.576227,-4.5033,-4.19159,-1.3052,-0.864429,-3.89324,-2.97501,-3.26153,-1.07483,-4.31008,-2.58318,-3.32689,1.03302,-1.30951,0.809685,0.413496,-1.40952,1.08532,-0.340305,-1.59495,1.5942,-1.5694,0.741096,-1.15988,0.897102,-3.23147,-3.71549,-2.38449,0.53789,-1.47575,-2.00985,0.465306,-1.30044,0.351058,-2.28438,-2.83191,-1.48266,-2.01218,-3.36178,-2.25005,-0.919306,-1.98395,-3.35126,-1.95218,-2.9143,-2.58437,-0.195775,-2.32675,-3.91476,-1.30673,-1.26487,-1.23335,-3.89435,-2.93047,-2.3866,-1.89159,0.836252,-1.33286,-0.646795,-3.28489,-0.0441501,-1.21409,-4.92321,0.0622594,-1.30154,-0.458335,-3.3672,0.465205,0.258381,1.09736,-0.2314,-0.79433,-0.527894,-1.01577,0.559632,2.07025,1.49974,1.91449,0.324599,-1.0412,-2.38461,-1.20904,-1.5859,-0.0426357,-1.53263,2.95146,-1.55686,-1.93305,2.03587,-1.45298,-2.95917,1.18205,0.551919,-0.453748,-0.357487,-1.09984,-2.88074,-1.76594,-1.4277,-1.88705,-0.678879,-4.01379,-4.75507,-2.67468,-3.95845,-0.743034,-1.76907,-1.90019,-1.6231,-1.00365,1.38147,3.82205,2.25892,-0.785294,-1.91904,-2.146,-2.21791,-1.49668,-0.560571,1.06893,0.333976,1.36534,-0.330527,-2.32759,-1.69855,-1.22152,-1.08876,-2.33124,-1.27175,0.0496138,-2.36699,-1.54494,1.06044,0.0508436,-2.99582,-4.02031,-3.3011,-2.0308,1.59804,-3.57744,0.317788,0.564973,-0.34061,-3.20758,-3.52463,-2.64338,-2.42764,-2.38532,-0.652241,-2.80985,-1.92278,-0.390897,-2.8148,-2.60419,0.634923,-2.64897,-1.74292,-4.77548,-1.59941,-2.02098,-3.92452,0.421941,0.387876,-2.42191,-2.93969,-1.25333,-1.13253,-1.11955,-1.33652,-0.0155567,-0.845395,-0.300891,-4.57322,-3.90639,-1.32343,-0.589215,-2.85453,-3.08861,-2.48942,-3.45984,-1.56792,-1.74375,1.46343,0.502711,0.00483966,2.06654,-3.36753,-3.37014,-1.80735,-1.56595,-4.56738,-3.0997,-0.874335,-1.60862,-0.351269,-1.47339,1.39727,-2.77185,-3.02942,1.48209,-0.394225,-1.26985,-3.23655,-0.628483,-1.17263,-1.79088,-3.54002,-0.954226,-0.735206,-5.01218,-1.32236,-1.79492,-1.88522,0.211727,-2.20335,-0.297523,-1.64714,1.33754,-2.01514,2.83989,0.24127,-2.00413,1.28568,2.7519,0.644141,-4.6966,-4.09259,0.854156,0.682997,-2.62026,-3.35915,-0.173235,-0.625618,-0.66477,-2.30892,-3.81876,-3.03296,-3.8303,-6.40124,-3.17824,-2.55815,-0.107752,2.24633,2.16867,1.66993,1.95399,-0.695638,2.84891,0.526252,-3.96333,-2.68217,-0.984931,-0.651244,0.113164,-0.084564,-0.180433,-3.01355,-2.85313,-2.15635,-1.91034,-2.49641,-4.216,-3.74286,-1.10912,-2.98937,-1.65954,-1.64714,-1.36466,-3.22681,-3.1613,-1.95607,-1.97197,-3.46852,-3.65239,-1.63584,-4.04366,-0.300209,-2.037,-2.00109,-3.16125,-1.98432,-0.920844,-3.8886,-5.04053,2.2498,-0.313657,-0.308118,-1.64969,1.68496,-0.171106,2.85598,0.963923,-1.83889,-1.86235,-5.94277,4.15265,-3.26897,-2.34371,6.24628,-0.192532,-0.818546,2.53886,3.37421,1.61814,6.97157,2.33222,0.0271983,-0.956501,1.38031,-0.37196,2.19225,-0.236321,7.64561,1.59739,3.00484,-2.88866,-1.58821,-2.54953,3.302,2.09713,4.41495,0.108334,-1.99612,-1.3984,8.15654,0.507568,5.80731,6.76101,1.29987,0.37292,-3.69552,-1.31749,8.06483,2.53605,1.96603,-1.32245,-0.0764908,-0.202718,-3.68463,-1.64198,2.93263,3.55057,-1.00876,-0.349792,9.63739,0.503358,-0.470879,-3.72579,5.11099,1.85768,0.577438,-2.69343,-1.16104,0.359097,0.18698,-2.39,7.06492,-0.493457,1.1086,6.19394,-4.20572,2.50039,-3.47958,4.29492,7.76081,-2.84296,3.80429,6.68348,5.42066,-4.13634,1.18529,5.03656,0.9952,7.47601,3.05156,1.7723,-0.694985,1.30402,1.76526,-2.92301,3.24908,-3.15263,5.6189,-2.54667,-0.954298,3.66147,-3.08116,-1.73447,-0.711639,3.59648,2.97983,4.00215,-4.1201,4.4848,4.54042,-1.86119,0.0226882,-3.71657,6.11926,2.64658,0.89232,-0.660931,-0.519596,-2.8769,-2.35381,5.22561,-2.7437,3.89779,1.57648,0.143905,-4.01134,-1.38343,-0.810946,0.859385,3.01401,-2.29912,6.66583,3.88338,-2.02663,2.33546,3.62681,-2.85516,0.232285,-2.19797,-3.50324,5.74112,-0.980518,2.43181,6.04028,3.05829,-2.51335,-0.344522,2.04167,-1.06105,-5.11835,6.1761,1.87307,8.40966,0.376295,2.18683,-4.5242,-2.83057,-1.7177,0.677632,2.61918,2.87916,-4.01359,-0.69167,-1.20066,7.92321,-4.06692,3.2059,-0.86674,0.593175,-1.1234,-3.01438,-0.96566,3.93497,2.67319,-2.56341,2.25034,-1.93645,0.219651,1.571,1.23569,-1.18034,-1.62822,-1.92824,1.46874,1.98601,3.36212,8.06831,0.445571,5.35131,2.17749,3.51503,3.33711,2.16683,5.30212,9.04913,1.28901,-2.39067,3.83996,-2.20997,-2.99278,0.0126808,2.56471,-1.30029,-1.02748,-3.21017,4.11458,11.4737,0.525782,-4.24413,2.78707,-3.05415,3.65133,1.36008,-0.319314,3.4875,-2.57218,-0.986826,1.48949,1.13933,-1.80475,2.20586,4.5018,-0.654053,2.42093,7.47648,2.01182,-2.88003,9.9314,-2.62235,-0.639006,8.36148,0.114982,9.92866,0.682392,6.95614,-1.90221,4.78982,2.17871,6.65449,-1.65267,-0.542584,-1.55693,-0.424338,-0.592809,-2.61323,8.92729,-2.28168,-2.57454,6.53595,0.327572,-0.507007,2.38476,2.00859,-2.1284,0.391901,-1.94385,-1.18879,-2.20419,2.87727,0.930626,1.76075,-3.61561,-2.63882,9.59688,-3.58194,0.640545,-0.59676,0.837868,3.85527,-2.14112,-2.02046,0.198266,-2.0633,-1.39754,4.42098,4.60682,0.517562,-0.281931,2.63442,-1.33295,0.486535,4.18038,4.53843,5.2832,4.30446,-0.361001,4.13419,6.39342,-2.33644,1.0049,-3.22902,-4.89064,-2.30071,9.97223,3.89275,-3.10636,8.66056,8.02523,-1.47792,-2.79741,2.81132,3.49125,0.444843,1.25626,-0.724642,4.95027,-0.242051,-3.79433,3.93023,2.56584,5.6919,6.02378,10.1299,1.93257,2.212,8.64814,-0.173711,-0.0395394,-5.03963,-0.299505,-0.855051,5.06939,-1.71464,1.23402,1.08487,-2.26278,1.65678,3.68848,-4.03584,5.95705,-0.925226,-3.05788,3.52644,4.97987,4.61906,-3.1883,-1.0838,-0.384772,7.00402,-0.457059,1.55887,1.78419,1.97065,3.50016,-1.56603,3.79235,1.40727,1.49775,3.46989,2.17702,5.70813,-3.44706,-2.50466,-1.69137,-1.26228,6.39159,-1.01141,-0.681591,-2.22645,0.488905,2.09233,3.28584,8.12619,-1.69013,2.58545,3.9104,0.151048,-0.292563,8.34939,0.361293,5.40913,-0.786597,4.1174,4.27008,1.95806,0.887285,-0.599237,0.0401576,1.38494,7.05192,-1.00478,-1.54453,0.858122,2.5773,1.31831,6.68777,-0.276138,3.66889,0.130675,-1.81538,-1.48884,1.76329,1.01888,2.64705,1.9217,-0.55782,2.26086,0.0541174,3.39524,3.9991,-1.22914,-3.0607,0.0516264,-2.5342,-1.26782,6.65788,-1.41648,-0.113512,1.86561,-2.48954,0.806037,4.32262,1.57214,0.233968,2.97833,-2.02057,-1.1381,-0.105826,-4.48803,-1.44578,-1.33943,-1.2117,-4.06408,0.941352,2.76695,0.303558,-2.63018,4.02758,-0.241354,-0.493502,0.35801,0.997082,-0.40914,-3.74903,0.0268149,-3.51279,3.80119,1.89527,1.66889,10.7543,-2.97706,5.27171,-0.610673,-1.69283,-0.400734,6.55064,8.00274,0.273933,-1.21106,5.44515,-4.00864,-0.409885,0.631887,-0.33604,-2.40419,-0.240121,3.51126,-4.07955,0.0651359,-2.90675,0.824102,3.63349,2.00961,1.60255,-2.08004,-3.70176,-2.84585,-3.21413,-3.0206,3.08335,-2.59661,-0.324584,1.41229,3.0169,0.0239027,-1.18056,2.30186,1.41411,2.72229,3.84049,1.16625,-0.843982,3.3712,4.56385,0.889185,-4.13823,-0.957184,4.91101,-0.794056,-0.322711,0.395373,-2.61211,3.09126,2.52985,4.66513,-2.20934,1.7557,1.83109,2.64561,5.56098,3.9709,0.434957,6.41747,6.81523,-0.533193,-0.917446,-2.71694,3.05939,8.48822,0.582142,1.07674,1.84002,3.03201,-0.19284,1.06374,0.451177,-4.5433,2.44051,0.932168,3.62608,7.90692,3.42625,12.493,10.2063,0.648131,-0.919306,-0.638997,-1.09548,-3.55858,1.88849,5.29611,0.738909,-0.340061,1.70109,-2.16044,-0.0584161,-0.800778,-1.8859,-1.06982,-0.142239,1.18172,2.46854,-0.47387,0.475362,2.9189,-2.70189,-1.41764,-4.55607,-3.20987,-0.015984,1.601,0.991977,1.77829,0.18047,-1.41824,2.28423,-0.445376,-2.37154,-2.49333,-2.53401,-2.0492,4.23814,0.903267,-1.60484,-3.6946,-3.58169,-0.192296,7.13619,2.88565,2.16338,5.86619,-0.629624,-1.27958,-0.885189,-2.40276,-0.262869,-0.902648,-2.61993,-1.04023,-0.803495,-0.744696,0.440993,-3.13297,-1.3284,-1.73692,0.164857,-2.29387,-5.71144,0.506462,-4.362,-1.5552,-2.48723,-2.94406,-4.62009,-1.8729,-1.97858,-2.93448,-2.22851,-1.40343,0.695849,3.58801
book,-4.97751,-3.23442,-3.38807,-1.61961,-2.75009,-1.06896,-0.648003,0.19935,-0.958975,1.14726,-2.20049,-2.4334,-2.10521,-3.22654,-1.86217,-0.321626,-1.71829,-1.38599,-0.8696,-1.41182,-3.26421,-0.732587,-1.45397,0.147321,-1.84141,-1.62049,-0.526261,1.17088,-2.21384,-0.864607,-3.01419,-2.78966,-1.057,-4.43956,-3.21876,-3.64224,-0.147653,-2.18345,0.751457,0.499313,-0.381133,-0.319407,-1.31898,1.42819,-0.48776,1.25862,0.487018,-0.130859,-2.12046,0.62689,0.291947,-3.96499,-1.79765,-3.01472,-0.78757,-4.99442,-3.11767,-3.69081,-4.01783,-4.62919,-3.42882,-3.22484,-2.6415,-1.48856,-3.78853,-1.95509,-1.74556,-3.27939,-3.50748,-0.455876,-4.08465,0.898788,-2.91706,-2.14434,-3.54542,-0.652272,0.109664,-0.182247,3.03739,0.371268,-2.86348,-5.08675,-1.89516,-3.58048,-1.66218,0.53276,-2.60405,-1.52572,-3.4401,-3.18255,-1.82404,-1.18642,-2.13623,-2.88078,-1.38825,-3.09687,-2.40935,-4.83226,-3.93769,-2.80443,-1.43254,-1.58663,-1.65835,0.189753,-2.08578,-3.69984,-0.597275,-0.7891,-1.72552,-2.45943,-1.8223,1.65434,1.05084,-2.16738,-1.06581,-5.17926,-5.07081,-1.82508,-0.77534,-3.85339,-2.50041,-2.80711,-1.86818,-3.97703,-2.35625,-2.36065,-0.0169051,-0.957507,-1.09771,-1.04538,-2.57671,-0.17304,-1.41777,-1.70255,0.366486,-3.00211,-1.32844,-2.74709,0.685303,-3.63406,-3.83727,-2.91208,-0.489972,-2.49016,-2.55359,-2.00345,-2.03553,-0.415737,-2.0538,-2.78248,-1.69625,-0.301483,-2.45351,-0.523959,-0.165058,-1.66594,-2.97994,-1.68383,-1.9754,-2.57935,-0.845106,-1.54285,-2.69635,-1.32334,-1.87522,-1.65301,-3.71762,-3.07733,-2.46778,-1.91353,1.5901,-0.449579,0.460575,-2.82383,-0.119035,-0.976479,-3.05252,0.589093,0.204676,1.13456,-1.58901,0.938051,-0.760021,0.845248,-0.19559,0.508975,0.0417648,-0.314278,0.997461,2.75554,2.13624,1.02018,1.30369,-0.267099,-1.37189,-0.194023,0.00598148,0.231006,-0.306528,2.94392,-1.20226,-1.52095,1.81702,1.09996,-2.14336,0.651879,-0.750282,-0.00228679,-0.146709,-1.91756,-2.32565,-1.36635,-1.52413,-1.2798,-1.22821,-3.01033,-4.48322,-1.71312,-2.89525,-0.0967734,-0.96993,-1.72026,-0.325684,-0.49085,0.480839,1.80321,0.860161,0.418585,-0.0132943,-0.570438,-1.91208,-0.630506,-0.120623,1.76111,0.309855,-0.156596,-0.227193,-1.74719,-1.39494,-1.8342,-0.400431,-2.10791,-1.61271,-1.04486,-2.23086,-0.830112,-0.0926941,-1.55606,-1.97857,-3.18022,-2.09888,-0.77176,1.90333,-2.66108,1.19738,-1.86231,-0.973413,-2.01158,-2.0012,-1.49511,-1.8795,-1.42236,-0.0380203,-2.34118,-2.04769,0.625799,-1.61464,-2.79725,0.257536,-2.35457,-1.00844,-5.44809,-2.32085,-1.99358,-3.27826,-0.39972,-0.288179,-3.15235,-3.14244,-0.482663,-2.2272,-0.575149,-1.44409,0.996768,-1.02231,0.35194,-5.11263,-2.51606,-1.30001,0.0267502,-2.5229,-2.65469,-2.35894,-2.21454,-1.46047,-2.57404,1.20925,-0.514994,0.0158037,1.33818,-3.1949,-2.75977,-2.54538,-1.99375,-4.32313,-2.83195,-1.25059,-1.49556,-1.21279,-1.50842,2.07282,-1.69791,-2.44256,0.947772,-0.178162,-1.33274,-3.59199,-1.19633,-1.24715,-1.82768,-3.11473,-0.508308,0.317527,-4.35835,-0.497954,-1.48753,-2.27452,-0.547144,-0.964133,-0.245398,-0.911127,1.02075,-1.06475,3.91964,0.492792,-1.84577,0.801426,1.73995,1.45363,-4.56202,-3.57724,1.89095,1.15317,-2.57291,-3.77381,-0.366086,-0.269381,-0.769347,-1.33401,-2.69401,-1.7251,-3.76566,-5.62897,-2.85557,-2.6897,-0.442586,2.40875,1.53381,1.72728,2.54751,-0.108932,3.28403,1.27218,-2.7384,-2.91585,-1.18052,-1.01811,-0.130486,-0.515937,-1.42743,-2.71831,-3.09588,-1.60152,-0.432798,-2.35254,-3.54376,-3.29323,-1.35246,-1.56815,-3.18137,-1.85202,-3.10281,-3.86408,-3.35358,-2.75952,-2.11519,-3.55979,-4.38442,-1.62031,-4.38101,-1.3697,-1.98438,-3.00178,-4.19365,-1.61094,-1.18924,-3.4701,-3.40819,2.78825,0.231954,0.0160869,0.982668,0.861179,-0.0202744,1.43452,0.987241,-1.78858,-1.39666,-5.03412,4.81148,-1.8257,-2.73031,5.51614,-0.959378,-0.881195,3.11804,3.34254,0.541341,7.41172,4.45587,-0.841077,-0.713452,1.36764,0.267442,2.85225,-1.24859,6.27974,0.363509,1.87933,-2.87932,-1.37651,-1.48165,2.41583,1.52275,4.7864,0.31946,0.126583,-1.25931,7.15485,-0.782534,3.95427,3.90425,1.6328,0.113717,-2.93712,-1.23689,8.82789,2.7854,2.16304,-2.03637,-0.309445,-0.753498,-2.66891,-0.00808133,4.63248,3.27026,-0.789187,0.409829,8.38007,0.747378,-0.439958,-3.82464,4.01193,0.74895,1.21698,-3.66865,-1.80108,1.56,1.7725,-3.28495,6.68694,-1.43222,-0.248718,5.03109,-3.68634,3.28535,-3.77985,4.59766,9.02527,-2.19261,5.50186,10.8876,7.36116,-2.94517,2.26807,5.80702,-0.870902,8.81898,3.25785,1.59115,-0.866394,1.61917,2.95883,-3.03409,2.29063,-2.13881,5.41556,-2.79322,0.397561,2.53283,-3.06783,-1.68576,-1.93949,2.46547,1.45687,1.97686,-3.45012,5.64121,5.55118,-0.0314363,0.522862,-3.03724,6.29504,2.25366,-1.26616,0.081323,-0.123722,-1.02599,-3.01497,6.14909,-1.53349,2.87981,0.646018,0.181718,-4.13433,-1.4747,-0.0733227,0.842886,4.22589,-1.29491,7.27747,4.53301,-1.99492,3.10667,3.11946,-2.12625,-0.758312,-1.83174,-2.70801,5.69882,-0.135393,0.616453,4.4007,3.08397,-3.6127,0.128052,0.751189,-1.14332,-3.80792,6.69838,1.21638,9.37584,2.31879,3.43394,-4.12022,-1.69546,-2.99445,0.223489,2.69916,1.63656,-4.13532,0.199944,-2.25341,6.95973,-4.02768,2.62105,-0.700022,-1.0981,0.0988147,-2.20752,-2.09743,4.90633,2.08026,-3.30503,2.19639,-0.997166,-0.136755,0.00871393,0.912975,-0.500496,-1.35468,-1.91325,2.05556,3.39506,3.23365,8.17698,1.48605,4.07299,2.46166,3.64601,4.60064,2.74449,6.8012,10.7961,1.04931,-1.19239,1.51716,-2.26432,-1.45009,0.948254,2.08484,-2.15856,-1.38138,-2.75031,3.37623,13.4195,-0.367459,-4.32348,1.91875,-0.483819,2.43909,1.95467,-0.712919,3.3177,-1.88288,-1.49893,0.698578,1.21832,-2.58791,1.37706,5.07364,-0.895651,2.8038,6.49459,2.99877,-2.1847,10.4556,-1.51112,-0.737886,8.81469,-1.46518,9.28842,2.24225,7.6846,-1.24964,4.53573,3.27452,6.74146,-2.10158,-1.14187,-0.123785,-1.50458,-2.06595,-2.91829,7.55405,-2.25674,-1.98718,4.97872,2.13203,-1.70601,3.60124,1.35496,-2.15116,-0.195429,-0.370773,-0.78328,-1.07811,2.52186,-0.513798,0.461742,-3.45755,-1.58329,9.68445,-2.99969,1.38059,-0.0773512,-0.50506,4.12209,-1.46902,-2.26971,-0.564765,-2.06384,-2.99626,4.38314,6.30035,1.12309,-0.00645286,2.35017,-1.51772,1.289,3.50231,5.7429,4.60372,3.79497,-0.110905,3.6364,5.48073,-2.04462,2.83576,-3.30386,-4.19373,-1.83364,10.7066,0.290862,-1.61873,7.95039,6.54413,-1.3474,-1.62543,2.41048,3.54476,-0.224509,0.253783,-0.623979,4.68871,0.136098,-4.27115,4.66304,2.07041,6.80477,7.60989,10.0327,2.93531,3.80233,5.84446,-1.85308,-0.523953,-3.57843,-1.11354,0.860674,6.0131,-1.26414,1.73514,0.679483,-2.79345,-0.0935264,3.22361,-3.22147,5.1984,-1.63826,-2.12875,2.75838,6.75715,4.27187,-1.54542,0.79113,-0.555227,6.16764,-0.118726,-0.281921,1.96203,2.02648,5.21103,-0.243622,2.6476,3.29371,1.80667,0.593824,4.58715,5.65401,-3.35409,-1.64277,-1.25148,-1.43953,7.0262,-0.597374,-1.39136,-2.46793,-0.844827,3.43378,2.5176,7.67464,-1.06338,2.54995,1.92412,-0.531803,-0.89474,9.80461,-0.613037,6.90214,-1.82592,5.0709,4.91937,2.95361,0.70536,-0.605414,0.825238,0.973457,7.13925,-0.421959,-3.43196,2.51171,3.05462,2.24262,5.8352,0.444435,3.87108,-1.08561,-1.37327,-0.883797,2.85132,1.95535,1.08736,2.10526,0.326709,1.26638,-0.682715,1.89844,4.75709,-0.165807,-1.21614,-0.433296,-1.79208,-0.700109,6.61308,-1.35252,-0.823085,1.54112,-2.12323,-0.669132,5.45961,2.29413,0.287036,1.91424,-2.13362,-1.97421,-0.714788,-3.62887,0.821802,-1.34038,-1.41381,-3.43346,0.330598,3.62944,1.75355,-2.58762,4.19001,-0.688399,0.753888,0.272727,1.04202,-0.357924,-3.75626,-0.154595,-3.60884,2.42412,1.40243,2.08602,8.97334,-3.86423,4.60296,-1.41909,-1.08557,-0.800285,7.8701,8.40562,0.0876582,-0.885768,8.15173,-3.77441,1.33212,1.16994,0.675406,-2.35832,-1.11163,4.08138,-3.55542,-0.770377,-3.20134,1.71857,3.79308,1.34651,0.564484,-2.03307,-2.2129,-1.27478,-1.65067,-1.92581,3.08655,-1.23766,-0.141824,0.632186,2.63324,1.02913,-0.671144,1.29985,1.76811,2.74821,4.94324,0.140634,-0.52624,2.50858,4.01295,-0.265928,-3.62565,-1.11798,6.18251,-0.796396,-0.448248,-0.89447,-1.90153,2.53918,2.55389,6.54768,-2.09566,0.989846,2.55198,3.46769,4.90722,1.74465,0.825682,4.3272,6.24802,0.674172,0.331912,-2.27915,2.8989,6.27665,0.292176,-0.227703,0.0366633,3.85173,-0.847161,0.582098,-1.83102,-5.1684,2.93062,1.48886,4.23965,8.00151,3.20671,13.0003,8.93551,0.0770866,-2.22978,-0.982743,-1.60087,-3.52057,1.65026,4.93434,-1.08623,0.0651532,2.00937,-3.4647,-1.478,-1.79622,-2.0434,-0.604073,-0.178453,-0.0143289,0.125341,-1.16306,0.0968792,1.1642,-1.87542,-3.00028,-3.47287,-3.39171,0.360088,1.66755,0.561931,0.202345,-0.804595,-0.749969,0.461927,0.0718267,-2.08878,-1.39802,-1.92001,-1.69474,3.21969,-0.00502646,-1.40874,-3.71003,-4.78387,-0.384873,5.01216,1.92579,1.40467,4.10667,-0.790552,-1.01909,-1.32689,-2.48568,-0.96993,-0.885844,-1.88927,-1.28825,-0.569148,-1.45444,-0.845539,-3.71408,-1.11658,-1.46794,-0.113903,-2.29255,-6.31587,-0.456955,-5.31669,-2.7135,-2.55909,-3.22791,-5.02073,-2.09772,-3.22253,-2.53629,-1.04505,-2.66533,-0.00122346,4.71378
book,-2.48486,-1.49563,-1.68532,-1.29333,-3.17448,-0.26082,-0.720526,-2.17083,-2.15019,-1.15934,-3.43178,-1.64388,-2.30317,-3.11333,-2.43591,0.491742,-2.62927,-0.600939,-0.305237,-1.44316,-5.4549,-3.01569,-2.37364,-1.30019,-2.58087,-1.38091,-0.434224,-0.263053,-1.42376,2.39091,-2.57602,-0.694993,-0.98283,-2.4623,-3.52576,-2.74003,-0.158328,-1.43669,1.45652,0.882713,1.06322,-1.62371,-1.96746,-1.35665,-0.391411,0.981942,1.22455,-1.50754,-0.316769,-1.08116,-1.60969,-2.74464,-1.08175,-1.691,-0.22553,-2.69626,-2.30751,-4.12551,-2.51067,-2.57225,-1.64359,-3.02559,-2.68215,-1.93731,-2.31612,-0.739361,-1.35077,-2.84238,-3.56262,-0.885991,-2.36534,1.00322,-2.42655,-1.01078,-2.5353,-1.93684,0.519239,1.15303,1.56523,0.627832,-3.38136,-4.76627,-2.48473,-3.07947,-1.93247,1.10788,-2.6268,-0.270221,-3.62083,-2.37386,-3.95266,-1.64165,-3.29801,-3.20283,-1.30538,-4.51478,-3.97639,-4.44734,-4.24991,-4.60432,-4.47577,-1.73399,-1.22408,0.00152853,-2.18653,-2.69524,-0.532293,-0.146307,-1.82895,-2.41254,-2.27736,2.41594,0.380071,-0.0454884,-0.459892,-3.92329,-3.7661,-1.83305,-2.39601,-5.28597,-0.653515,-4.78831,-3.23107,-3.93837,-2.03683,-3.08401,0.0103024,-2.61736,-3.28963,-3.19729,-4.14607,-1.97919,-2.57983,-2.72215,-1.81221,-4.11554,-3.91959,-2.82479,-1.11692,-6.28818,-5.70162,-3.98238,-4.23382,-4.43076,-2.98174,-1.33823,-4.70617,-0.966416,-1.45682,0.191148,0.258983,0.721236,-2.40917,0.735406,0.0636882,-1.09078,-2.28708,-1.21628,-1.57196,-2.06095,-1.12824,-2.39617,0.00634152,-2.09622,-1.07975,-2.17937,-2.85173,-2.18431,-2.41095,-2.57499,0.405684,-1.29697,-0.107114,-2.69158,-3.32053,-1.52285,-1.45545,-0.999411,-0.537463,0.332572,-2.10869,-0.466616,-1.09995,-0.900651,-1.56708,-0.430904,-0.652046,-0.64557,-1.55062,0.592171,0.346482,-1.28038,0.423919,-2.20638,-0.160557,-0.290643,-0.492678,-0.956897,-1.42531,0.674798,-2.10245,-1.67775,-0.569945,2.39891,-1.04511,0.0994634,-1.54365,-0.734466,0.0103218,-3.31046,-2.2626,-1.36329,-1.34123,-1.57941,-1.5585,-2.46834,-3.15902,-1.85232,-3.195,-0.664101,-2.54116,-2.56692,-0.521811,-2.0355,-0.548723,-0.391982,-0.677412,-1.81975,-1.23273,-1.38883,-3.50295,-2.09378,-0.882106,0.339053,-0.599301,-2.21932,-2.13343,-1.01702,-2.39788,-4.08648,-2.33907,-1.77049,-1.17307,-0.616343,-2.57203,-1.20457,-0.405703,-2.20993,-1.50855,-2.71212,-1.62207,-0.322235,-0.250509,-2.64267,1.52224,-3.08705,-2.36205,-2.37054,-1.91655,0.459622,-2.4125,-2.79938,-1.14361,-3.60454,-2.55093,1.46538,-0.840552,-3.53958,0.0306911,-3.24575,-1.98007,-5.34289,-2.79546,-2.81629,-1.59813,-3.44067,-1.24449,-1.77012,-1.71282,0.799027,-1.5424,0.292376,-0.826534,0.105051,-0.616463,-0.43088,-4.24396,-1.49296,-0.972825,-0.705659,-2.93374,-1.11963,-2.22657,-2.55657,-1.82668,-2.23126,1.39576,-0.0823833,0.804876,0.313696,-2.27268,-2.29607,-2.66285,-1.47421,-2.93118,-2.19192,-0.917458,-1.68139,-2.80597,-2.88926,1.89926,-1.48306,-1.17594,1.79277,1.9469,0.0741398,-3.91314,-1.82621,-1.67315,-1.87898,-3.43924,-0.571264,0.984005,-5.4341,-0.287517,-1.86258,-0.680532,-3.24047,-2.08906,-2.18903,0.396714,0.246815,-1.38571,3.21879,-0.680979,-0.903069,-0.93217,-0.549555,-0.163486,-3.94463,-1.06963,2.36709,0.312301,-1.03719,-1.39397,-0.68592,-0.998513,0.134703,-2.09923,-3.22464,-3.50059,-4.06864,-5.40183,-1.17789,-3.51472,-0.595793,1.74211,1.81495,2.00341,1.53086,-0.719291,2.1197,2.70829,1.34989,-3.93764,-0.370364,-1.67631,-0.611485,-2.17466,-2.24613,-1.6885,-1.76504,-2.63417,-2.10367,-1.15193,-2.88069,-3.53299,-1.58434,-1.8235,-2.02352,-0.707858,-2.4256,-1.78468,-1.37717,-1.74623,-2.06089,-1.38331,-1.06286,-0.622042,-2.65809,-0.378405,-0.443407,-0.670062,-4.70178,-1.07977,-0.329128,-3.01082,-1.72893,1.65943,-0.324205,-0.303768,3.09683,1.75508,-0.437521,1.4143,1.08738,-1.1111,1.9863,-1.81582,7.93287,-0.271904,-1.83149,7.19589,-0.851365,2.36342,2.5626,3.83483,-0.429195,4.84533,4.42107,-0.700031,-0.298299,2.29937,-0.953782,4.03627,0.627616,6.12259,2.56303,2.97913,-1.85023,-1.95262,-1.29801,-0.00732148,1.4244,3.69901,4.57663,-0.713258,-2.55598,6.86261,-0.199206,1.50489,0.864479,-1.01939,-0.640681,-3.63336,-1.8039,9.29346,2.1719,2.12821,-0.9669,0.463863,-1.81785,-1.2962,2.11144,4.38578,2.61485,-0.954751,1.37031,7.35139,1.86113,-1.40495,-2.39289,1.66363,0.990772,3.89221,-1.99834,1.08007,0.785965,2.22662,-2.44327,1.7368,-0.0744195,-0.487023,3.21006,-2.63174,5.59542,-3.23703,4.42692,9.70378,0.529879,8.45508,11.6091,9.25763,-2.42877,-1.60321,8.6899,-0.878274,7.34486,0.455491,0.895349,-3.21939,0.408319,5.00731,1.07664,-1.86019,-0.0815966,0.0493667,-0.975533,1.46915,1.49934,-1.90058,-1.73845,-1.83978,-0.378746,2.42543,0.793773,-2.71699,6.589,5.79003,0.364614,1.3564,-1.56222,1.78673,-0.0627024,-0.698278,1.03648,0.486421,-1.80798,-1.15658,7.31893,0.667182,3.17968,0.262725,0.573077,-3.68183,-1.82103,2.7678,5.03737,5.82496,-0.807302,8.87827,6.47613,-2.53686,-1.35914,4.76814,-1.62831,-0.411341,-2.60827,-1.07337,4.63619,-2.16653,0.93969,3.3566,1.82844,-1.24705,2.25889,1.53473,1.15501,0.00652143,7.8517,2.3933,6.41839,1.81304,6.17059,-0.96281,1.35327,1.27224,-1.36487,0.0835227,0.858171,-0.552941,1.97194,-2.89435,4.69989,-1.92536,8.29867,-2.73265,0.217366,-2.0061,0.329825,1.63784,8.13661,-0.285152,-2.43801,1.29323,-0.731676,-2.12189,0.442722,-0.204385,0.118135,-2.22475,1.16348,1.099,0.822147,-0.22709,3.78306,1.70772,2.50034,2.00724,2.69306,4.32702,2.21697,8.21377,6.37568,-0.0179784,-1.91779,0.160536,-2.83944,3.06824,0.518217,0.347767,-2.49337,-1.32679,-2.13052,2.41187,10.8244,3.93011,-0.693904,1.58332,0.0319235,1.41638,0.481048,-1.44531,3.0658,-1.59024,-0.839441,-0.876884,2.32447,-1.76081,0.590543,7.21938,-1.2243,4.04202,5.02408,3.2099,-0.0949987,7.74006,-0.488078,-0.00557536,4.53585,-0.519713,5.35876,5.49774,5.76572,-0.220067,3.19112,4.96993,8.66268,-1.32364,-1.6413,1.43616,-2.09659,-2.45841,-1.71052,4.51979,-4.15077,-1.06352,4.98304,5.34588,-2.52202,1.9246,6.8878,-1.35796,0.585004,1.41773,-0.814418,1.87745,0.610064,-2.7787,1.64267,1.72588,-1.03261,9.49961,-2.59884,5.96531,-0.678851,-1.65764,2.01929,-2.68259,-0.17936,-0.0439602,-2.31921,-1.5951,4.88092,6.17623,3.92374,-0.659616,-0.225131,-0.186894,-0.934935,3.16888,6.47634,-0.764382,-0.183931,-0.614759,9.33482,4.71793,-1.66073,7.57604,-4.16591,-3.8715,1.3616,8.88668,-0.405876,-1.12602,5.11452,3.27759,-1.2633,-3.20417,-0.474383,4.08096,-2.42435,0.596636,0.0642197,6.39209,2.6698,-3.10424,6.92779,-0.913996,6.84732,7.23164,7.52068,4.21468,5.91745,5.08713,-0.824746,0.938915,-0.235893,-1.5476,0.841377,2.74791,1.68418,-0.0903187,-2.39076,-2.90124,0.468111,2.12225,-1.42729,3.53848,0.48411,-1.8516,1.4241,8.73635,0.316361,1.13286,-2.5285,0.67966,4.32865,-1.45536,-0.453431,1.82834,-0.514664,6.06777,1.2231,0.746703,8.16386,3.06851,0.214201,5.23152,4.58084,-1.54448,0.608774,-1.52224,1.52991,9.18762,-1.46952,0.148867,3.07597,-0.137974,4.90598,4.84559,6.87605,-0.896636,0.492103,2.088,-1.14977,1.76863,7.40441,0.440189,6.25749,0.317757,10.989,1.742,2.49626,0.0586929,-2.58987,-1.38873,0.714615,7.78239,0.928272,-3.38121,5.56891,7.875,3.58427,3.85913,1.62363,7.22654,-0.503438,2.09857,1.53763,2.3917,0.171714,0.0346314,2.40337,3.88696,0.909474,-0.819189,1.41695,6.39349,2.56444,0.677993,-0.521979,-1.50888,-0.289428,6.59988,-0.971096,-0.73286,-0.332401,-0.60055,0.0461245,5.12412,3.36673,1.447,0.788057,-2.63764,0.176071,-1.79798,-0.571851,0.454236,1.36051,0.0609066,-3.09101,0.73651,2.14134,-1.07712,-2.59397,3.97866,0.254385,0.304945,0.598404,0.260683,0.47398,-2.97432,1.43946,-2.2644,1.234,1.92697,2.93695,5.36263,-2.90985,2.34009,-0.696928,-1.33494,-1.0625,9.88557,5.26469,-1.98957,0.552654,8.94816,-2.08072,0.959872,5.84097,-0.553917,-2.50523,2.54442,2.24409,-2.70367,-1.37474,-2.93973,4.45491,3.74186,3.07291,-1.21926,-2.09258,0.335806,1.44503,-0.124963,2.93419,6.22853,-1.76954,-0.631573,-1.88949,0.762733,-1.20837,0.032061,0.455202,4.3263,3.08235,5.56034,-0.261321,-1.73149,3.81336,2.86571,-0.794924,-2.2141,-1.22805,7.52081,-2.06571,0.0191385,0.426615,-2.80121,1.27744,6.08341,7.67943,3.0734,0.667118,3.87805,5.79153,3.74257,1.95608,-0.547036,2.50538,2.52872,-0.311211,2.19453,0.95567,2.03156,3.16534,-1.15883,-0.560772,0.168431,0.49755,-1.06281,0.992748,-1.94902,-2.9492,4.27783,0.851021,2.29387,4.50383,2.73609,9.52278,7.72138,-1.37803,-3.04859,-2.02694,-3.18931,-3.88042,-2.37084,1.75185,-0.989171,0.732147,-1.03467,-2.85934,0.360378,-4.634,-2.94573,-2.19737,-1.13488,-0.299716,-0.281964,-1.86546,-0.443619,-0.891376,-2.75138,-3.99462,-3.34342,-3.52627,-1.05657,-0.558635,-0.2654,-0.841339,-0.441193,-1.91387,0.0435115,-1.13939,-1.75976,-1.40559,-1.19636,-4.26615,-1.07672,-0.33461,-1.85589,-2.09885,-2.72881,-0.564182,0.973291,0.163478,1.41348,0.683937,-0.310558,1.31022,-2.05984,-2.0769,-3.25508,-1.25788,-2.49196,-1.33438,-1.01432,-3.38531,-2.25216,-2.29033,0.0941471,-0.653402,-0.609592,-1.72618,-5.95313,0.129358,-4.09844,-3.85698,-2.52796,-4.07362,-5.18449,-5.44678,-5.23365,-3.97471,-3.78465,-3.19702,-0.669473,4.64027
book,-4.64897,-3.17014,-4.39122,-2.83363,-2.01165,-0.615101,-0.615813,-0.370761,-1.29052,0.770275,-2.93629,-3.23684,-2.6775,-2.74067,-1.77905,1.80212,-0.0742237,-0.652249,-0.181395,-1.41512,-4.0227,-0.168059,-0.842364,0.693544,-1.0704,-2.83543,-1.04138,-0.0176898,-2.60822,-1.5584,-4.22033,-4.25187,-2.27249,-4.00876,-2.64745,-3.46269,-0.29695,-2.84059,0.264572,-0.627611,-1.58043,-1.46367,-2.68348,0.556646,-1.46566,0.211295,-0.671312,-0.667974,-3.81572,-1.24028,-0.98031,-2.42706,-2.83574,-3.47221,-2.18624,-5.47337,-3.59026,-4.32618,-4.60822,-4.11896,-4.59583,-5.08054,-3.75115,-2.36382,-4.13009,-2.4242,-1.8525,-4.41233,-3.9649,0.638544,-2.94451,0.0577447,-1.94835,-0.894621,-2.62398,-0.476891,-0.214994,0.251958,3.40392,-0.271542,-1.26285,-4.01311,-1.89336,-2.85154,-1.96111,0.642641,-3.02343,-0.838136,-1.58824,-1.98168,-1.26056,0.859372,-0.92953,-1.74178,-1.13154,-1.58621,-1.6737,-5.1887,-3.31718,-3.54561,-1.71905,-1.08735,-2.39572,-0.104433,-2.73518,-3.90457,-0.727369,0.748401,-0.845502,-1.90734,-0.907622,0.674171,1.48006,-1.47234,-1.24289,-3.87465,-4.12792,-0.669523,-0.746135,-4.01861,-3.17983,-2.1838,-1.10525,-3.91378,-2.85384,-1.43323,0.739009,0.5768,0.340206,-1.40385,-1.91576,0.535409,-0.989664,-1.11395,1.20927,-1.57483,-0.339549,-2.14959,0.787621,-3.60814,-4.09684,-1.93004,-0.550773,-1.00612,-2.44202,-2.46255,-2.72222,-1.23823,-2.77348,-3.85621,-2.4806,-0.480683,-1.64578,0.537715,-0.125027,-0.969547,-2.59223,-0.096387,-2.33037,-2.46309,-0.380207,-2.90758,-3.01425,-2.55922,-1.46686,-1.60448,-4.34236,-2.85245,-2.82858,-1.82721,1.10086,-1.18552,0.226635,-3.25885,-1.5964,0.0226799,-3.18908,0.164957,-1.41576,0.574614,-2.33629,0.0583572,0.750217,1.23236,0.179361,0.940529,1.56828,0.238903,1.10062,2.92687,2.6189,0.39756,2.06604,-0.358686,-0.244665,-0.691102,-0.539981,0.395788,-0.432362,3.13481,0.364821,-1.18243,2.38251,1.07883,-1.12091,0.134971,-1.00348,-0.843339,-0.0337691,-2.22043,-2.21638,-1.50457,-1.98671,-2.71169,-1.48467,-3.21769,-4.53096,-2.65068,-4.13322,-0.859721,-2.09593,-2.22977,-1.08435,0.169239,0.523768,1.92803,1.62331,-0.852593,-1.16228,-1.36773,-1.44554,-0.652067,0.434268,1.17813,-0.223693,-0.0782717,-1.39372,-2.1364,-2.12444,-1.62719,-0.69619,-2.27869,-1.69552,-1.21402,-2.5568,-1.66556,-0.0506217,-0.8225,-2.1576,-2.72702,-2.66638,-1.30789,2.87848,-3.68013,0.239451,-0.914776,-1.10428,-2.16376,-2.43505,0.418486,-2.11358,-0.577692,0.424347,-2.46777,-2.1631,0.362807,-1.90805,-3.4378,-0.372922,-3.08048,-1.86839,-5.32299,-2.64145,-2.60423,-4.12592,-1.02982,-0.766322,-1.45676,-2.59025,-0.191216,-1.54933,-0.521881,-2.23424,1.24468,-1.56254,-0.301953,-4.30655,-2.70786,-1.57356,-1.38962,-3.38813,-2.92787,-2.37227,-3.13857,-2.9027,-3.21603,-0.216444,-0.322756,-1.02402,1.22943,-2.70999,-3.265,-2.56674,-2.27002,-4.12797,-2.46471,-1.82339,-1.2093,-1.04993,-1.15484,1.45301,-2.59151,-2.61738,1.11905,-0.554905,-1.15051,-4.98404,-1.49258,-1.92162,-1.55624,-3.78651,-0.135801,1.30427,-3.56938,0.194808,-0.122992,-0.591558,0.0596801,-0.950389,0.0120555,-0.542828,2.10169,0.286009,4.32636,0.181251,-2.22027,0.367521,1.18423,1.12564,-4.89937,-3.33185,1.02247,-0.203269,-3.11129,-4.44186,-0.559272,-1.62766,-1.21195,-2.46037,-3.47516,-2.90455,-3.65505,-5.2624,-2.26788,-3.21633,-0.269272,2.04746,1.48379,1.87798,2.28297,-2.09492,3.20021,1.30278,-3.18102,-3.01424,-0.452266,-0.949012,-0.603399,0.107008,-0.859365,-3.0958,-2.08607,-2.94395,-1.85277,-2.62463,-3.97931,-3.75937,-1.16595,-2.3914,-2.09241,-2.05059,-1.72249,-2.73266,-2.27505,-2.30228,-2.97646,-3.62096,-2.34411,-1.07019,-4.5123,-2.23324,-2.62283,-2.97016,-3.35756,-2.17341,-2.36105,-3.00388,-3.32924,2.6394,0.215911,1.72571,-0.0776373,1.8254,0.0745629,1.4205,1.38542,-1.3136,-1.56416,-4.45372,6.67412,-2.52331,-1.79558,5.26323,0.343378,-0.100649,3.00143,2.35528,2.55566,6.28042,1.89104,-0.251113,-2.8171,2.34285,-0.301447,2.08585,1.50819,6.84078,1.10327,2.71054,-1.77706,0.101061,-2.4298,2.45151,2.40772,4.4526,-0.453294,-1.26894,-2.10306,6.21504,0.873539,2.19637,2.35081,2.77248,1.33225,-3.6239,-1.4436,8.56797,2.48677,2.43173,-1.11891,-1.49876,0.619906,-2.25388,-0.618135,3.22989,2.47561,-0.222619,0.708239,7.60847,1.16302,-0.751255,-2.6996,4.88992,0.482601,1.51853,-2.37882,-2.34042,0.0559366,0.224127,-2.93441,5.60839,-0.621261,0.200735,4.83492,-4.09257,2.81522,-2.17249,5.71478,8.03048,-2.09794,4.33237,8.86952,6.42423,-3.15198,0.323482,6.15088,0.347668,7.64985,3.26906,1.13785,-0.165236,1.70639,2.80361,-2.40686,2.68062,-2.29913,5.23545,-1.76648,0.191123,3.65429,-3.0972,-1.38985,-0.945379,1.70718,1.69381,2.01467,-2.98253,5.12971,4.98759,-1.18465,0.931166,-2.91345,6.30615,2.75299,-0.57335,0.0759048,-0.934434,-1.55265,-1.75832,5.67548,-2.1131,1.88441,2.05923,-0.0651768,-3.10219,-1.43364,0.0736391,1.76057,3.76426,-1.57125,8.16757,4.68474,-1.10414,2.34593,3.37456,-1.53371,0.372526,-1.97116,-1.93827,6.30236,-0.00303502,2.2507,5.07849,4.60144,-3.33712,0.745469,1.6637,-1.01028,-3.4953,7.4339,2.65846,9.19986,2.01129,2.51863,-3.84112,-2.59787,-1.76691,0.954202,1.48556,1.88497,-3.03343,0.519549,-2.63133,6.4516,-3.91758,3.48246,0.327166,0.0949608,0.132714,-2.1243,-1.61338,4.46165,0.545154,-1.95951,3.72519,-0.169164,-0.981806,1.8399,0.743166,-0.448046,-1.63964,-1.4234,1.59316,2.36517,3.85409,5.85068,2.19283,5.68563,3.1981,4.17911,3.78756,3.62253,6.27571,7.6355,1.4064,-0.714284,4.26404,-2.60867,-0.538595,-0.407826,2.56901,-1.05916,-1.8447,-3.12524,3.19352,11.0277,0.502057,-3.02519,1.56744,-1.89327,4.54237,1.8916,0.438308,3.9653,-1.76412,-1.10087,0.434314,2.24459,-2.64884,0.85075,5.02267,-0.34956,2.51626,6.38996,1.89309,-1.94165,9.5203,-2.86484,-0.016143,7.63372,-1.89874,7.4983,1.89288,7.08126,-0.16564,5.90882,2.89458,6.00276,-1.53672,-0.969693,-0.377728,-0.247438,-1.32335,-2.43119,8.41027,-2.1937,-1.08641,4.90559,0.115198,-0.747436,3.32318,0.415974,-1.42235,-1.31516,-1.04248,-1.57167,-1.06591,1.67621,1.07412,0.0481396,-2.47658,-2.41531,9.45318,-2.26516,1.31894,0.0509022,-0.112129,6.15144,-1.74643,-2.74591,0.15526,-1.70691,-1.40685,4.38332,5.96999,0.596576,-0.0877519,4.31895,-0.763762,1.83022,2.1576,5.50861,3.10193,3.42983,-0.345629,4.93999,5.11028,-1.57437,1.30297,-2.95804,-3.6041,-1.74433,8.78836,2.06115,-1.94038,8.0835,6.48007,-0.827097,-2.15811,2.81977,2.44617,1.9939,-0.335329,-1.62526,2.57125,-0.31699,-2.62138,2.49139,0.812101,6.29045,6.95137,8.65223,2.86176,3.02036,8.6142,-0.544642,-0.584676,-3.5273,-1.03832,0.319097,2.71578,-0.873117,1.06433,1.53341,-0.619731,-0.470332,3.3194,-2.95805,5.14972,-0.570355,-1.79937,3.37717,6.66429,2.47737,-2.36379,0.763062,-0.164636,3.50769,-0.581007,-0.400015,2.46693,1.63702,4.52291,-0.569544,1.97879,3.36646,2.55539,1.70124,4.00956,5.79904,-2.69117,-1.41173,-0.947885,-2.94484,7.74687,0.867379,-2.31979,-0.632803,0.194683,1.78963,2.28152,7.25457,-0.842053,2.30444,2.45204,0.0630028,-0.53437,9.15407,0.653826,5.80186,-1.27294,4.34497,4.12965,1.49083,0.214378,-0.688643,0.257885,0.20007,6.88402,-1.81423,-1.94514,3.06835,3.16683,4.1728,5.60451,-0.535969,3.43129,0.570375,-1.46632,-1.80248,3.53611,0.720351,3.89495,2.68197,-0.142102,0.761525,-1.06039,2.861,3.31336,-2.34277,-1.3518,-0.850857,-1.87759,-0.983718,5.13325,-0.770803,-0.391977,2.39874,-1.29851,-0.085734,4.53423,0.663384,1.23852,2.88164,-2.24586,-1.10594,0.562677,-3.63638,-0.216836,-0.0530261,0.165758,-3.47502,0.924028,3.1069,1.81961,-2.09023,4.79927,-0.862433,-0.40329,-0.351562,0.28206,-0.176602,-2.88195,0.832695,-3.15829,4.0024,2.16067,2.49852,7.67564,-3.90895,5.22663,0.376559,-0.798931,-0.53235,6.86664,6.67797,-0.119417,-0.130428,6.69389,-4.54741,0.344356,1.24198,0.493279,-1.38285,0.727493,2.81817,-1.78457,-0.333302,-2.53756,1.78266,3.4876,1.20792,0.940506,-2.53233,-2.23424,-1.46691,-1.25354,-2.86604,3.3815,-0.989516,0.853966,-0.145679,3.13964,0.351,-1.03392,2.0181,0.838167,3.73063,4.44455,2.35595,-0.648583,2.30747,2.47635,-0.399167,-3.69139,-0.869318,3.23808,-0.110398,-0.318424,-0.490424,-2.27587,3.49963,5.26048,5.64433,-1.25625,3.19967,1.87878,1.47529,2.29485,0.680482,1.36251,3.64203,5.95983,0.163745,-1.46249,-3.00729,3.68243,5.13021,-0.365875,0.309266,0.626349,3.92345,-1.14095,2.84239,-1.34827,-4.22561,3.358,1.34221,2.67113,7.56477,2.6663,11.541,7.61441,0.868083,-1.22798,-1.53097,-2.01021,-4.07262,0.198251,3.92186,-0.0143603,-0.0878268,1.27005,-1.59151,-0.847253,-1.57207,-1.91706,-0.60661,-1.062,0.0615157,0.988951,-0.537643,-0.599484,2.98179,-2.25236,-2.85969,-3.33217,-3.12091,0.940846,2.86339,0.466276,0.32988,-0.438558,-1.10723,0.862486,-0.737207,-1.29084,-1.35361,0.76012,-2.22583,2.80203,-0.857126,-2.1097,-3.64933,-2.98663,-1.97376,4.11063,1.51463,0.494936,2.4605,-0.123873,-1.7896,-1.63801,-2.1173,-0.928469,-1.24735,-2.30185,-1.2152,-0.866955,-1.84318,-0.891147,-1.99014,-1.13097,-1.6109,-0.245164,-1.46918,-6.27375,0.430425,-4.54554,-0.486075,-0.456903,-2.74938,-4.06346,-1.85581,-3.36847,-2.0596,-2.07977,-1.59092,0.453764,2.69943
book,-3.88121,-2.02863,-3.53557,-2.30541,-2.7068,-1.04966,-0.553146,0.297078,-0.65564,1.082,-2.87999,-2.49551,-2.23592,-3.41491,-2.66417,-0.779187,-0.31094,-1.6553,-0.486121,-0.983588,-3.79295,-0.788583,-1.49097,1.34429,-2.66193,-1.42687,-0.960803,0.989843,-1.941,-0.58729,-3.1558,-3.15541,-1.58729,-4.83603,-3.22055,-3.20425,-0.487981,-1.66695,-0.156609,-0.86209,-1.28837,-1.25899,-2.94483,0.0426363,-1.21977,1.96925,-0.435417,-1.57722,-2.19924,-0.726433,-1.25054,-4.03539,-1.82821,-3.04235,-0.812232,-5.67797,-3.51913,-4.3808,-4.50068,-5.07713,-3.5364,-3.25761,-2.68016,-1.75422,-4.25926,-2.48166,-2.06323,-2.86223,-3.43252,1.89399,-3.66119,0.661435,-2.74318,-2.38994,-3.57296,-0.436177,1.28543,-0.208262,2.44198,1.56683,-2.00932,-3.6856,-1.88797,-3.00521,-1.41381,1.33499,-2.46186,-1.62018,-3.28069,-1.78342,-2.08973,-0.14863,-2.50739,-2.55625,-1.36152,-3.19205,-2.47464,-4.58961,-3.45452,-1.93103,-2.14875,-1.0767,0.0688975,0.580471,-1.56896,-3.60373,-0.830341,-0.226428,-0.268085,-0.926566,0.383756,1.14755,2.18618,-1.07956,0.228055,-3.59591,-2.55955,-0.344822,-0.554832,-3.37656,-2.97422,-3.07961,-1.9264,-3.38193,-2.02267,-1.7788,1.25531,-0.722147,-1.11615,-1.1918,-1.82994,-1.09387,-1.24377,-0.883393,1.88337,-2.43498,-1.74065,-2.73881,0.98234,-2.94821,-2.24646,-2.76189,0.288851,-2.57299,-2.06502,-1.077,-2.46441,-1.80076,-2.59272,-2.77354,-1.24518,-0.82229,-2.02827,-1.36371,0.0267753,-1.54512,-2.85654,-1.13666,-2.38977,-2.36667,-0.669455,-2.99676,-3.33997,-2.11765,-1.81966,-2.53682,-3.94568,-2.79498,-3.08086,-2.11776,-0.132604,-0.964719,-0.300901,-3.66889,-0.848349,-1.55823,-3.24359,-0.494129,-0.866058,-0.212531,-3.14741,-0.771338,-0.142708,0.374848,-0.756831,0.156193,-0.137207,-0.508487,-0.190688,0.558862,1.35106,-0.240866,0.877627,-0.188374,-2.18066,-0.0543142,-1.44255,-1.33758,-2.24772,1.68914,-2.01038,-1.60427,1.73702,-0.109972,-2.23572,-0.24424,-0.790317,0.279435,-0.812242,-2.76837,-2.40548,-1.69527,-1.70328,-1.81543,-2.11485,-3.23355,-4.5414,-1.94212,-3.56719,-0.245111,-1.24738,-2.31125,-0.65843,-1.53939,0.199015,2.14909,-0.469235,-1.60305,-1.08442,-1.73282,-1.69267,-0.29548,-0.570783,-0.00667819,-1.1543,-0.441638,-1.81768,-2.65831,-2.38232,-3.1739,-1.37843,-3.27814,-1.69282,-0.760554,-3.90024,-1.56443,0.20686,-1.29003,-2.72459,-4.60044,-3.30517,-1.27669,1.04925,-3.77637,0.513261,-0.978141,-1.97349,-2.45148,-2.69616,-1.13726,-2.60977,-1.75607,-1.15786,-3.19308,-2.75634,0.260202,-1.93846,-3.01177,-0.477946,-3.21487,-1.86937,-5.20238,-2.41384,-2.93545,-3.61629,0.503162,0.706136,-2.05973,-2.34783,-0.31827,-1.89181,-0.34115,-0.973286,1.13408,0.583226,0.595179,-5.06664,-3.01563,-0.344387,-0.444218,-1.79157,-2.74644,-1.30211,-1.74763,-1.91368,-4.06039,1.28833,-1.52598,0.304806,2.39176,-3.31078,-2.07729,-2.05849,-1.4813,-3.96481,-1.76172,-0.231191,-1.10929,-1.23465,-0.323501,2.30025,-2.19786,-3.03893,0.0191307,0.427528,-1.74862,-2.59805,-1.01182,-1.93065,-2.68557,-3.99646,-1.27753,-0.0223066,-4.17595,-1.10616,-1.66542,-2.00915,-0.131825,0.424559,1.68504,-1.24743,0.883664,-0.828287,4.50902,2.24633,-1.63139,1.31775,1.73974,2.52043,-5.09684,-2.77305,1.21571,0.18185,-2.94945,-4.21016,-1.61433,-1.94706,-1.51544,-1.64598,-4.2454,-3.37183,-3.68132,-5.5696,-2.45846,-2.79806,0.300569,2.23264,0.840654,2.06632,2.20789,-1.29768,3.74593,2.07015,-3.29319,-3.14427,-2.03774,-2.08852,-1.79368,-0.73394,-2.33705,-2.59791,-2.72659,-1.17194,-0.796894,-2.40311,-2.41786,-2.41739,-0.490399,-2.16931,-2.95611,-2.06832,-2.67156,-3.51658,-2.7415,-2.10576,-1.97825,-3.16267,-3.59825,-1.10613,-4.60171,-1.52079,-1.82209,-3.1009,-2.60128,-3.0161,-1.96694,-2.8981,-1.94913,4.10124,-0.300626,0.497971,1.45613,0.739429,-1.5711,0.649698,0.431194,-0.669952,-1.32807,-4.88771,3.78116,-0.546965,-2.37662,4.55518,-0.541232,-1.1663,3.32041,2.5374,0.705648,7.30476,3.1155,-0.949404,-0.877533,0.260067,-1.56979,1.57508,-0.770001,5.68222,0.946706,1.28095,-2.07632,-1.35736,-1.99926,2.21375,1.20354,5.63143,0.859685,-0.622142,-1.9426,6.62335,-0.817899,4.14763,4.45529,0.681016,0.262351,-3.63914,-1.82894,7.8031,3.80531,0.977679,-1.98517,-2.33552,-0.0238854,-1.94018,-0.635278,4.5252,3.80236,-0.618638,1.77663,9.83379,0.821971,-1.06286,-3.1543,4.98546,0.427903,2.22371,-2.32531,-2.04716,1.31111,0.871756,-2.94162,6.30184,-1.26057,-0.568409,5.74198,-3.74471,3.43617,-3.02529,5.04062,8.65791,-2.6486,3.19548,9.64526,6.26731,-3.1021,0.185075,4.30119,-0.390449,7.48732,2.79866,1.69576,0.219602,1.06318,3.75854,-2.31042,2.16757,-2.64628,4.5149,-2.33105,-0.371629,4.83342,-2.34976,-1.66742,-1.53559,2.87213,2.14189,1.8174,-3.07776,3.90243,4.96504,0.268118,-0.252501,-3.3108,7.09532,2.32946,-1.10367,0.0879095,-0.556597,-1.38969,-2.78786,6.74277,-1.24331,3.26153,1.17726,0.585505,-3.84725,-1.06981,-0.79451,0.971388,3.48698,-1.84197,6.64653,4.16926,-1.75128,2.43136,3.42245,-2.66962,-0.765241,-3.27591,-2.80249,6.44742,-0.814192,1.13297,5.99758,3.39886,-4.01312,-0.0178167,0.663094,-1.51522,-5.0542,7.11343,2.00001,9.21813,1.86934,2.13501,-4.12534,-1.56603,-1.95247,0.811105,2.59137,1.47756,-4.27109,-0.558174,-1.31055,7.29992,-3.8127,2.78639,-0.509825,-0.296273,0.558129,-2.2892,-1.23063,3.12115,2.73379,-3.45142,1.97668,-0.29352,-0.489418,0.425419,1.34083,0.0720016,-0.607242,-2.0158,2.80127,2.30757,3.88679,7.45098,0.726253,5.23477,3.55644,3.43059,3.88258,3.54825,6.6,9.9903,0.530201,-1.25506,2.74502,-1.9305,-2.56772,2.59384,2.4974,-1.23304,-1.37052,-3.08608,4.15363,11.3647,-0.225376,-4.33333,1.90631,-1.55375,2.73532,2.14537,-1.40294,3.57099,-1.9701,-2.07485,-0.454889,1.98545,-1.23554,1.63935,4.99712,-1.37732,3.15517,6.431,2.13507,-2.55843,11.3909,-1.43052,-1.17846,8.24862,-2.10861,9.42076,1.93059,8.19879,-0.379255,4.35783,2.68696,4.57221,-1.75852,-0.689401,-0.0650087,-0.602582,-1.12447,-2.35322,8.46191,-2.33513,-1.69157,5.72409,1.47509,-1.07133,4.34761,1.20422,-1.57097,-0.959273,-0.098706,-1.00694,-1.30123,1.49787,-0.441553,1.34842,-2.90768,-1.79604,9.7069,-2.72176,0.857924,-0.553599,0.830657,4.38595,-1.24298,-1.63416,-0.772645,-2.44536,-2.80302,4.65983,5.95736,0.94544,-1.07397,2.02135,-0.277395,1.63536,3.56054,5.23039,4.85058,3.71425,0.456655,2.29441,4.33539,-2.00602,2.06329,-2.8125,-4.6803,-1.45537,10.4721,0.626139,-2.51937,8.06357,7.50276,-1.30562,-1.47247,2.5267,3.55119,-0.106123,0.0238997,0.308057,4.2036,-0.548773,-3.84134,3.20454,2.41984,6.93636,6.43504,10.7987,3.06877,3.1585,5.89513,-1.18146,-0.978809,-3.72192,-1.06674,0.366919,5.45389,-0.609801,0.420906,0.21154,-2.77735,0.892995,3.06068,-3.07386,6.06131,-0.733256,-2.63937,2.78401,5.63613,3.53086,-1.68558,-0.0380099,-0.163685,5.04601,0.219311,-0.0837954,2.72297,2.58561,4.80297,-0.188683,2.12942,3.44687,0.585465,0.3055,4.01336,6.37272,-2.13374,-2.51792,-1.45558,-0.464246,7.65418,-0.621934,-2.28605,-1.43519,-0.503397,3.30893,3.82702,7.92646,-0.61097,3.30035,2.84535,-1.13247,0.275198,8.99418,-0.504223,6.10284,-1.93217,3.62144,5.53935,3.32987,-0.0977646,-0.386729,0.92132,1.02019,7.43999,0.176917,-3.546,1.92444,1.88509,2.49888,6.78048,0.98345,3.30499,-1.1032,-1.78558,-1.17856,3.50069,1.45474,1.49619,2.44678,0.391798,-0.372133,-1.87089,2.39508,4.48446,-0.764809,-2.0026,0.235225,-3.98347,-1.6371,5.5273,-1.72354,-1.16386,1.31089,-2.24507,0.398552,5.07043,2.09528,-1.02345,2.82546,-3.0223,-1.47449,-0.780516,-4.22457,1.05224,-0.418504,-1.59481,-4.21692,-0.906955,4.09777,2.41026,-1.32318,3.09455,-1.01502,0.447256,0.670001,1.28777,0.38658,-3.26565,-1.24814,-2.53662,2.47538,2.20739,2.33458,8.75507,-3.50668,4.22914,-0.315304,-1.37579,-0.49568,6.83132,9.06081,0.130194,-0.835171,6.82594,-3.98724,1.23349,0.258619,0.451181,-1.00823,-0.348638,3.49854,-2.99649,-1.18003,-1.66962,2.4947,3.67312,1.9945,1.06147,-2.55431,-3.12044,-1.53953,-1.84003,-1.98783,3.87888,-1.59758,-0.376447,-0.650968,3.4345,1.2182,-1.31043,1.20797,1.54847,2.42975,4.63661,0.513542,-1.10407,3.416,3.38744,1.00996,-2.67539,-0.800728,4.09369,-0.923922,0.123377,-0.0835907,-3.74523,3.07946,1.80916,5.79259,-1.5301,0.697963,2.07648,2.46326,4.46941,2.30286,0.577952,5.09636,6.38325,1.05303,-0.0841032,-1.72951,3.35904,7.24019,-0.830703,0.99563,1.37613,3.97462,-1.49734,-0.255569,-2.19778,-4.88169,3.70485,1.90505,4.66512,6.74799,2.10095,13.2127,9.66258,1.5142,-1.25517,-0.714074,-0.798408,-3.37242,1.55255,4.98544,0.822364,1.54015,3.18992,-1.56305,0.945707,-0.30235,-0.527677,1.63454,0.897183,1.44228,1.76849,-0.394399,0.694912,2.69026,-1.34637,-2.68005,-3.23673,-2.1726,1.38729,2.27116,0.45723,1.29389,0.784901,-0.350335,1.45727,0.977154,-1.91342,-0.947428,-0.270812,-0.96636,3.677,1.01069,0.0472959,-2.81604,-2.98523,0.797524,6.89792,3.25168,2.24874,4.42815,-1.63754,-0.724338,-1.31675,-2.20222,-1.68819,-1.27212,-2.32609,-1.20576,-0.972918,-1.22257,-0.784201,-3.09643,0.256669,-1.43346,0.314747,-1.71076,-6.39305,1.0981,-3.48756,-3.26576,-0.993776,-2.19949,-4.47152,-1.83784,-2.93407,-1.86738,-0.694945,-1.33278,1.34236,4.19132
earbud_case,0.583433,0.536062,-3.87062,-0.60953,-3.5261,5.04898,0.408488,-3.99571,-2.11764,-2.31209,-0.340836,-6.30814,-4.14732,-2.77036,-3.07513,-2.95875,-3.40143,-2.46371,-3.96781,-3.09767,-3.19728,-2.53867,-4.59281,-2.63161,-4.29119,-3.516,0.852035,-0.611469,0.698986,0.00391185,-2.56605,-1.20378,-0.386436,-3.00634,-2.32653,-2.3539,-1.79315,-3.94565,-0.47132,-3.28568,-1.83335,-1.35927,-3.615,1.27595,-1.95907,-0.837042,-2.70473,-1.79849,-4.52133,-4.24712,-3.2292,-2.50434,0.814,-0.845233,-1.50003,-3.55001,-1.82227,-2.19761,-3.75901,-0.450391,-0.10741,-2.91629,0.0852516,0.958509,-0.425293,0.185517,1.19276,-2.09052,1.34534,0.850787,0.813531,-1.43404,-1.46519,2.38014,-2.1616,0.612912,-1.82046,-0.413401,5.38542,-0.900313,-1.64373,-2.49503,-0.627307,-0.138996,-4.97548,-3.69247,-0.927804,-3.31674,-6.34233,-2.7416,-4.56961,-0.692058,-3.8516,-5.31488,-4.74944,-1.38515,-4.98165,-2.93217,-0.790823,-2.13578,-4.27694,-1.86765,-0.825148,2.80433,-0.405403,-2.96756,-1.957,0.209552,-2.35174,-0.463674,-1.73936,2.54478,-0.100326,0.39593,-2.26807,-2.4446,2.06224,2.69074,-2.43053,-3.08815,-1.81309,-3.65855,-0.224077,-2.11882,-2.06627,-2.12322,1.29979,-6.17054,-2.84921,-3.77073,-3.99474,-3.92946,-2.48344,-3.58768,-4.38206,-0.648489,-5.78192,-3.31603,-3.25361,-4.02059,-2.15381,-3.29327,0.488511,-5.89926,-3.1488,0.220476,-1.18477,-0.672258,-1.39114,2.84977,-0.09815,-1.38273,0.914843,-2.51008,0.54796,-1.12173,1.24549,-1.79477,-1.48397,-0.893246,-1.10119,-0.257779,-0.0626459,1.54894,-1.01471,-0.314567,-0.215392,1.32719,0.746749,-2.01154,-3.10161,-3.45676,-1.77612,-0.241312,-1.4661,0.106059,-2.46722,-3.4327,-1.23834,-3.79581,-3.53384,-2.13436,-3.11652,-1.37122,-2.55437,-0.0429217,-0.191903,-0.438969,-1.78247,-3.28446,0.32556,-2.33993,-0.452386,-0.0405658,-0.0121624,-2.6844,-3.81543,-2.47683,-2.97382,-0.561647,-1.37372,-2.12853,-2.6988,-2.36546,-2.28374,1.34657,1.61707,1.60077,1.16735,-0.498744,0.338307,0.451184,0.489062,-1.25455,-0.089066,-0.283374,1.0873,-1.66202,-1.89753,-0.347898,1.71461,0.64305,0.0126238,-1.44236,0.637551,-1.7801,-0.0752829,-2.28169,0.272959,-0.581338,-2.5198,-0.222103,-1.37103,-0.741352,-1.75762,-0.640755,-2.02339,-3.38804,-2.72658,-2.44047,-2.23012,0.837092,-3.15579,-1.50727,-1.665,-1.73519,-1.59022,-0.353983,-0.0344421,-1.89503,-0.986547,-1.1236,0.407795,-1.53103,-1.73475,-1.8549,-0.205618,-0.118379,0.319401,-2.42684,-2.4201,-1.89076,0.502145,-0.78877,0.043514,-1.6218,-1.27055,-0.744218,-2.67162,-0.668295,0.262567,-0.493925,-0.724784,-0.661162,0.495871,-3.52106,-1.12399,-2.48852,-2.66893,1.06269,-1.74417,-0.849907,1.19387,0.298733,-0.634094,-0.921674,-2.48161,-1.41073,-0.530189,-2.59486,-2.55857,-2.09158,-1.98617,-0.857883,0.262964,0.606869,1.10909,-0.818906,-1.50755,-0.262361,-2.15864,-0.110519,1.97878,0.606261,-0.755807,-1.57429,-0.766163,-1.89689,-3.35219,-3.59511,1.90474,-1.8785,-0.202492,-1.4067,1.51975,-2.98061,-3.18589,-1.03305,0.934345,-0.945361,-0.264287,-5.54016,1.02381,-2.13351,-1.13039,-2.67597,-0.117195,-3.34896,-0.868056,-1.05942,0.283696,0.282925,-0.119341,-0.115639,-0.705278,-0.0552965,-0.940599,0.480568,0.11882,0.371891,-2.85457,1.56171,0.00955677,-3.04407,-3.10099,-0.960773,-4.39795,-0.492366,-3.61726,-2.25379,-2.10356,-2.34418,-1.13796,0.920857,-1.79202,0.459112,0.261973,-0.40753,-0.191754,-2.04763,-1.52836,-0.904545,-2.10658,-1.73465,-0.338741,-2.33805,-2.32265,-2.93222,-2.49569,-1.23896,-2.17365,0.389609,-0.979126,-2.0416,-0.101192,-1.95075,1.42374,-0.472657,-2.67904,-0.732755,-1.58376,-5.34858,-3.20427,-2.1951,-0.793083,-2.08476,-2.92715,-2.39002,-4.56413,-0.277005,1.37956,-2.82804,2.23656,-3.41603,-0.800371,-0.139033,-4.69667,-2.0119,0.421723,1.77937,-1.53847,0.737228,1.61904,-3.73773,-0.0939523,1.85208,-3.09692,-1.63578,-2.41946,4.5029,-3.20481,-3.15743,3.43087,-0.473135,-0.0826026,-0.240977,-0.390256,0.979531,4.693,7.3299,-1.78602,1.82681,-0.551191,1.16148,-2.05027,-1.68755,2.37137,6.80036,3.25736,-0.0999916,0.373383,1.38707,1.05314,1.77187,2.09218,5.95766,-2.12235,-2.96467,4.52657,3.79134,0.832889,2.63799,-2.8257,1.02163,-1.44708,-1.84866,3.12863,3.63454,-3.88423,-1.94404,-1.08809,4.47455,1.02808,-1.25451,-4.52192,1.09638,-2.70319,-0.197122,-3.04752,-0.0900128,-3.43576,-0.326803,0.805413,3.31591,3.6335,1.70928,1.25609,-2.91024,-3.02076,1.65316,3.88719,-3.38395,0.847104,5.57682,-1.40067,3.70398,-3.87852,2.14248,0.173523,-0.560551,-0.0736338,1.55708,5.73876,-3.12278,-3.27996,3.8361,-0.220782,4.54057,1.74125,-0.588127,0.433022,4.27393,0.171995,0.726803,0.951376,-1.52035,-2.71133,-4.07661,-3.1736,6.30427,-1.31161,-1.29617,6.79175,3.66154,5.30516,0.384711,-1.41312,7.77524,3.72744,-2.79132,0.605879,-2.1076,2.41977,-1.30881,1.032,3.34236,3.20386,-2.81708,1.80329,0.80678,-1.57181,3.14809,4.09102,-0.728858,-1.30563,-3.3261,0.258008,4.00343,1.87582,1.5622,4.88981,4.89346,0.390568,0.585482,2.65366,-0.480365,-2.22306,-2.47352,-2.61098,1.46958,-1.18234,2.70546,1.45322,2.78277,0.980376,2.99557,-0.109484,-3.53511,2.25955,0.383907,2.89358,9.60942,-2.22374,1.04187,-4.00187,-2.96284,3.43594,-3.34208,0.715964,7.46764,-2.08302,-2.38466,-2.42472,0.104773,-0.888785,-4.13462,0.341657,7.23858,-2.19097,-3.28615,4.3407,-1.60858,4.48989,-1.43469,1.74262,-1.41713,-1.93182,3.70487,-3.31288,-2.64963,-4.38813,-1.14558,-1.53746,0.407005,2.06045,4.87103,-2.50371,1.08035,4.1582,4.17057,4.67577,0.154013,1.34555,3.55538,-1.19866,-4.32311,2.70327,-0.68283,2.37044,1.6061,4.38006,-0.517238,-1.71021,-4.01119,4.30101,2.91625,2.84169,-1.55286,-1.94721,-3.46425,-0.23599,-1.36545,-1.17982,2.64059,-3.70169,7.34488,0.374585,1.5436,2.06802,4.52107,1.22473,0.576649,1.96744,6.35694,-1.36379,-1.21974,3.51535,-1.72933,-2.32006,4.14937,4.01,7.60615,6.40972,8.06298,-1.15377,4.6358,3.2688,-0.753871,-1.16007,1.7003,-0.792144,3.11257,-3.91374,0.273443,2.71961,-2.8248,1.03673,4.71305,2.38467,-0.217872,2.82075,6.82481,-2.98752,3.13663,1.09396,-0.504267,1.76995,-2.67055,0.942909,5.25259,1.69383,-1.94762,8.18193,-1.01772,0.497343,0.998694,6.33437,0.110452,-4.20199,-1.21137,0.56453,-2.42506,-0.57821,6.04531,3.50398,1.48189,2.20854,3.13821,5.97382,1.41699,7.12162,1.03218,-2.34879,2.99513,5.07995,-0.721156,9.3871,-3.21605,1.91283,-0.481168,-4.33155,2.15801,1.95168,3.44337,-4.63833,2.56378,0.333734,-3.00943,-3.76764,2.3331,6.11664,-0.681645,1.6911,-0.16672,-1.49639,1.06353,-0.211385,-0.706959,3.71809,1.05109,5.79236,4.47604,6.5761,-0.49447,8.61894,-0.447422,-0.886232,-0.389132,-2.29906,3.94237,5.89938,-2.21149,3.0961,-0.856752,-3.82529,2.36647,2.98183,0.65769,2.16216,5.42776,-1.02899,3.87526,1.18503,-1.02804,-2.01902,-2.63973,-1.15877,-2.90735,1.98126,2.86502,2.27186,-0.53269,2.12276,0.0599031,-0.592985,2.97046,7.34283,5.03371,3.12543,2.49303,-1.73449,-3.59841,-2.41453,3.80968,6.07242,0.0639081,3.99392,0.453328,4.36904,2.09843,1.38637,5.37771,-2.30276,1.22812,-2.06002,3.11791,3.46966,5.94868,-0.018627,3.3069,-1.89066,4.14588,5.94748,4.66229,0.528977,-1.40245,-0.297172,-0.23088,5.40383,-1.05358,-4.43208,-2.6154,5.5569,2.66676,3.6462,1.03048,1.33279,1.00811,-2.54696,2.17582,3.3014,-2.08542,3.25989,3.2062,0.769274,0.607671,1.49913,1.14084,4.51691,0.124855,-2.90007,0.538851,-2.15622,-1.43944,8.54645,0.0388091,-0.525016,2.14754,2.61043,3.451,6.25308,6.92849,-0.942131,8.4604,-0.794491,-1.31928,-3.36181,-1.30764,5.81508,-3.90476,-4.73586,-0.167729,-0.131056,2.85532,0.352741,-0.160138,3.63417,1.7074,3.85973,-3.75169,0.957375,3.83824,-1.26769,-0.671474,0.317899,-4.47647,5.78861,1.98344,8.45297,-2.47198,-0.86625,1.01336,0.579715,1.11199,8.60574,0.958433,3.93098,-4.05903,2.99244,1.15085,-2.65744,7.02153,1.29271,-1.47875,0.557612,4.79231,-0.58354,-0.286712,-2.38458,5.94811,1.33123,7.93844,-1.8693,-3.18925,-2.5822,-2.05489,-0.59397,-0.607416,5.09923,-0.442659,-0.0262206,-3.54764,2.8549,-4.00703,-4.59575,-0.954818,4.94959,-0.497312,5.37948,-2.75894,-0.632315,0.980855,0.990452,4.73781,-1.87379,5.36752,-0.934525,-3.17059,-2.71004,-1.95026,-1.29523,5.8206,2.87661,1.63106,0.764161,-1.91811,5.41227,0.876542,1.19598,5.25486,-0.92854,8.48211,5.00797,0.502186,1.47355,2.48388,3.04501,1.33607,-2.12849,2.13748,2.96862,2.57977,2.53493,-2.15814,-1.94795,-4.67065,0.0100454,-2.65315,-0.806448,-0.757414,0.348293,2.00407,-3.14677,3.89078,1.15675,4.678,-0.110444,-0.780267,-1.26814,2.60108,5.74756,1.6736,-2.20441,-1.73988,-0.140646,1.60743,0.507437,1.84371,0.586647,1.48512,6.57882,0.594621,2.76293,1.71405,-0.570544,2.77907,-0.868882,-1.98411,3.72704,1.24666,-0.61713,1.13419,-0.70034,-2.28107,1.10869,-0.729909,0.317106,-2.17199,0.692911,1.13859,2.60437,2.92852,3.37114,-3.17543,1.3626,-0.70577,2.26168,2.03597,3.73506,5.75744,2.0123,0.329694,-0.716563,-1.69298,-1.1527,1.75372,-1.15172,3.2326,1.12919,2.20047,-2.35804,-2.59028,-3.75811,-1.27198,-0.563421,-0.767319,-2.76934,4.33938,1.2774,-4.56764,0.995645,-1.34488,-4.45383,-1.06074,-1.2539,1.73765,1.39592,1.20885,2.44413,3.4001
